{"learner":{"attributes":{"scikit_learn":"{\"_estimator_type\": \"classifier\"}"},"feature_names":["rsi_14","roc_10","roc_20","stoch_k","stoch_d","bb_percentage","volume_ratio","returns_1p","returns_5p","returns_10p","returns_20p","log_returns","hl_ratio","close_position","sma_7_dist","sma_30_dist","sma_50_dist","sma_100_dist","sma_200_dist","ema_12_dist","ema_26_dist","ema_50_dist","ema_200_dist","vwap_dist","macd_pct","macd_sig_pct","macd_hist_pct","atr_pct","volatility_pct"],"feature_types":["float","float","float","float","float","float","float","float","float","float","float","float","float","float","float","float","float","float","float","float","float","float","float","float","float","float","float","float","float"],"gradient_booster":{"model":{"gbtree_model_param":{"num_parallel_tree":"1","num_trees":"100"},"iteration_indptr":[0,1,2,3,4,5,6,7,8,9,10,11,12,13,14,15,16,17,18,19,20,21,22,23,24,25,26,27,28,29,30,31,32,33,34,35,36,37,38,39,40,41,42,43,44,45,46,47,48,49,50,51,52,53,54,55,56,57,58,59,60,61,62,63,64,65,66,67,68,69,70,71,72,73,74,75,76,77,78,79,80,81,82,83,84,85,86,87,88,89,90,91,92,93,94,95,96,97,98,99,100],"tree_info":[0,0,0,0,0,0,0,0,0,0,0,0,0,0,0,0,0,0,0,0,0,0,0,0,0,0,0,0,0,0,0,0,0,0,0,0,0,0,0,0,0,0,0,0,0,0,0,0,0,0,0,0,0,0,0,0,0,0,0,0,0,0,0,0,0,0,0,0,0,0,0,0,0,0,0,0,0,0,0,0,0,0,0,0,0,0,0,0,0,0,0,0,0,0,0,0,0,0,0,0],"trees":[{"base_weights":[2.167119E-6,1.8228714E-1,-1.91179E-1,3.912555E-1,1.2045875E-1,-7.190731E-2,-3.2533798E-1,2.4980871E-2,1.2350103E-2,8.148233E-3,-1.7079328E-3,5.583649E-3,-5.8054407E-3,-1.9334747E-2,-9.617555E-3],"categories":[],"categories_nodes":[],"categories_segments":[],"categories_sizes":[],"default_left":[0,0,0,0,0,0,0,0,0,0,0,0,0,0,0],"id":0,"left_children":[1,3,5,7,9,11,13,-1,-1,-1,-1,-1,-1,-1,-1],"loss_changes":[3.729806E2,7.073973E1,8.356517E1,1.9423447E1,2.7801243E1,2.2462906E1,1.9983704E1,0E0,0E0,0E0,0E0,0E0,0E0,0E0,0E0],"parents":[2147483647,0,0,1,1,2,2,3,3,4,4,5,5,6,6],"right_children":[2,4,6,8,10,12,14,-1,-1,-1,-1,-1,-1,-1,-1],"split_conditions":[1.395114E-2,-1.153787E0,5.318605E-1,-9.463071E-2,8.435052E-1,-3.8377702E-1,9.1122043E-1,2.4980871E-2,1.2350103E-2,8.148233E-3,-1.7079328E-3,5.583649E-3,-5.8054407E-3,-1.9334747E-2,-9.617555E-3],"split_indices":[14,13,13,26,13,7,7,0,0,0,0,0,0,0,0],"split_type":[0,0,0,0,0,0,0,0,0,0,0,0,0,0,0],"sum_hessian":[1.0700624E4,5.4777837E3,5.2228403E3,1.2494725E3,4.228311E3,2.7656357E3,2.4572043E3,7.1209186E2,5.373807E2,3.3165134E3,9.117975E2,5.3638086E2,2.229255E3,1.6801268E3,7.7707745E2],"tree_param":{"num_deleted":"0","num_feature":"29","num_nodes":"15","size_leaf_vector":"1"}},{"base_weights":[4.5922457E-6,1.7321151E-1,-1.8160567E-1,3.718739E-1,1.1444965E-1,-6.830856E-2,-3.090283E-1,2.3746401E-2,1.1736413E-2,9.081741E-3,1.2745062E-3,5.305484E-3,-5.5148494E-3,-1.83649E-2,-9.136162E-3],"categories":[],"categories_nodes":[],"categories_segments":[],"categories_sizes":[],"default_left":[0,0,0,0,0,0,0,0,0,0,0,0,0,0,0],"id":1,"left_children":[1,3,5,7,9,11,13,-1,-1,-1,-1,-1,-1,-1,-1],"loss_changes":[3.3665128E2,6.3904648E1,7.540132E1,1.7554977E1,2.5270348E1,2.0274208E1,1.8027771E1,0E0,0E0,0E0,0E0,0E0,0E0,0E0,0E0],"parents":[2147483647,0,0,1,1,2,2,3,3,4,4,5,5,6,6],"right_children":[2,4,6,8,10,12,14,-1,-1,-1,-1,-1,-1,-1,-1],"split_conditions":[1.395114E-2,-1.153787E0,5.318605E-1,-9.463071E-2,1.7664142E-1,-3.8377702E-1,9.1122043E-1,2.3746401E-2,1.1736413E-2,9.081741E-3,1.2745062E-3,5.305484E-3,-5.5148494E-3,-1.83649E-2,-9.136162E-3],"split_indices":[14,13,13,26,13,7,7,0,0,0,0,0,0,0,0],"split_type":[0,0,0,0,0,0,0,0,0,0,0,0,0,0,0],"sum_hessian":[1.0700238E4,5.476853E3,5.2233857E3,1.248977E3,4.227876E3,2.765761E3,2.4576248E3,7.117158E2,5.372613E2,2.4081328E3,1.819743E3,5.3633203E2,2.229429E3,1.680454E3,7.7717084E2],"tree_param":{"num_deleted":"0","num_feature":"29","num_nodes":"15","size_leaf_vector":"1"}},{"base_weights":[7.0350284E-6,1.6459756E-1,-1.725254E-1,3.5351637E-1,1.08743005E-1,-6.48913E-2,-2.9357862E-1,2.2579031E-2,1.1153894E-2,7.374022E-3,-1.7740455E-3,5.041221E-3,-5.2389195E-3,-1.744697E-2,-8.679311E-3],"categories":[],"categories_nodes":[],"categories_segments":[],"categories_sizes":[],"default_left":[0,0,0,0,0,0,0,0,0,0,0,0,0,0,0],"id":2,"left_children":[1,3,5,7,9,11,13,-1,-1,-1,-1,-1,-1,-1,-1],"loss_changes":[3.038834E2,5.7750885E1,6.80538E1,1.5879028E1,2.3628582E1,1.8299131E1,1.6272263E1,0E0,0E0,0E0,0E0,0E0,0E0,0E0,0E0],"parents":[2147483647,0,0,1,1,2,2,3,3,4,4,5,5,6,6],"right_children":[2,4,6,8,10,12,14,-1,-1,-1,-1,-1,-1,-1,-1],"split_conditions":[1.395114E-2,-1.153787E0,5.318605E-1,-9.463071E-2,8.5570157E-1,-3.8377702E-1,9.1122043E-1,2.2579031E-2,1.1153894E-2,7.374022E-3,-1.7740455E-3,5.041221E-3,-5.2389195E-3,-1.744697E-2,-8.679311E-3],"split_indices":[14,13,13,26,13,7,7,0,0,0,0,0,0,0,0],"split_type":[0,0,0,0,0,0,0,0,0,0,0,0,0,0,0],"sum_hessian":[1.0699173E4,5.4756353E3,5.2235376E3,1.2482628E3,4.227372E3,2.7658374E3,2.4577002E3,7.1115295E2,5.371099E2,3.3323152E3,8.9505695E2,5.3627795E2,2.2295596E3,1.6804739E3,7.7722626E2],"tree_param":{"num_deleted":"0","num_feature":"29","num_nodes":"15","size_leaf_vector":"1"}},{"base_weights":[8.799848E-6,1.5641882E-1,-1.6391021E-1,3.003441E-1,8.939058E-2,-6.1645728E-2,-2.7893615E-1,2.5008624E-2,1.1961342E-2,7.328754E-3,-3.4416866E-4,5.610207E-3,-4.814106E-3,-1.65776E-2,-8.245657E-3],"categories":[],"categories_nodes":[],"categories_segments":[],"categories_sizes":[],"default_left":[0,0,0,0,0,0,0,0,0,0,0,0,0,0,0],"id":3,"left_children":[1,3,5,7,9,11,13,-1,-1,-1,-1,-1,-1,-1,-1],"loss_changes":[2.743203E2,5.279236E1,6.1437164E1,2.112175E1,2.0574125E1,1.667161E1,1.4694763E1,0E0,0E0,0E0,0E0,0E0,0E0,0E0,0E0],"parents":[2147483647,0,0,1,1,2,2,3,3,4,4,5,5,6,6],"right_children":[2,4,6,8,10,12,14,-1,-1,-1,-1,-1,-1,-1,-1],"split_conditions":[1.395114E-2,-9.203419E-1,5.318605E-1,-1.1904088E0,-8.241881E-2,-1.193902E0,9.1122043E-1,2.5008624E-2,1.1961342E-2,7.328754E-3,-3.4416866E-4,5.610207E-3,-4.814106E-3,-1.65776E-2,-8.245657E-3],"split_indices":[14,13,13,4,15,13,7,0,0,0,0,0,0,0,0],"split_type":[0,0,0,0,0,0,0,0,0,0,0,0,0,0,0],"sum_hessian":[1.0697515E4,5.4741636E3,5.223351E3,1.7382512E3,3.7359124E3,2.7658718E3,2.4574792E3,4.054412E2,1.33281E3,2.3434407E3,1.3924718E3,4.5912976E2,2.306742E3,1.6802302E3,7.772489E2],"tree_param":{"num_deleted":"0","num_feature":"29","num_nodes":"15","size_leaf_vector":"1"}},{"base_weights":[1.0974321E-5,1.4865015E-1,-1.5573272E-1,3.213777E-1,9.764199E-2,-5.856214E-2,-2.6505196E-1,1.9576674E-2,7.8038573E-3,6.983451E-3,-1.0533049E-3,1.022659E-2,-4.0300013E-3,-1.575371E-2,-7.833949E-3],"categories":[],"categories_nodes":[],"categories_segments":[],"categories_sizes":[],"default_left":[0,0,0,0,0,0,0,0,0,0,0,0,0,0,0],"id":4,"left_children":[1,3,5,7,9,11,13,-1,-1,-1,-1,-1,-1,-1,-1],"loss_changes":[2.476438E2,4.8193962E1,5.547619E1,1.4405426E1,2.1091984E1,1.605917E1,1.3275635E1,0E0,0E0,0E0,0E0,0E0,0E0,0E0,0E0],"parents":[2147483647,0,0,1,1,2,2,3,3,4,4,5,5,6,6],"right_children":[2,4,6,8,10,12,14,-1,-1,-1,-1,-1,-1,-1,-1],"split_conditions":[1.395114E-2,-1.153787E0,5.318605E-1,-1.6451302E-1,6.944989E-1,-7.0575565E-1,9.1122043E-1,1.9576674E-2,7.8038573E-3,6.983451E-3,-1.0533049E-3,1.022659E-2,-4.0300013E-3,-1.575371E-2,-7.833949E-3],"split_indices":[14,13,13,23,13,7,7,0,0,0,0,0,0,0,0],"split_type":[0,0,0,0,0,0,0,0,0,0,0,0,0,0,0],"sum_hessian":[1.0695534E4,5.472611E3,5.2229233E3,1.2464595E3,4.2261514E3,2.7659177E3,2.4570054E3,8.741078E2,3.723517E2,3.121019E3,1.1051322E3,2.1313821E2,2.5527795E3,1.679762E3,7.7724335E2],"tree_param":{"num_deleted":"0","num_feature":"29","num_nodes":"15","size_leaf_vector":"1"}},{"base_weights":[1.2574036E-5,1.3298617E-1,-1.5768927E-1,2.6938668E-1,7.144812E-2,5.8246674E-3,-2.2046378E-1,2.3204062E-2,1.062906E-2,6.483993E-3,-1.0240783E-3,1.1694112E-2,-1.5207623E-3,-7.1558477E-3,-1.3773397E-2],"categories":[],"categories_nodes":[],"categories_segments":[],"categories_sizes":[],"default_left":[0,0,0,0,0,0,0,0,0,0,0,0,0,0,0],"id":5,"left_children":[1,3,5,7,9,11,13,-1,-1,-1,-1,-1,-1,-1,-1],"loss_changes":[2.2427737E2,4.8685516E1,5.0221474E1,1.9848557E1,2.1414824E1,1.1232584E1,1.500148E1,0E0,0E0,0E0,0E0,0E0,0E0,0E0,0E0],"parents":[2147483647,0,0,1,1,2,2,3,3,4,4,5,5,6,6],"right_children":[2,4,6,8,10,12,14,-1,-1,-1,-1,-1,-1,-1,-1],"split_conditions":[4.8035108E-2,-9.203419E-1,-3.037369E-1,-1.1904088E0,-8.241881E-2,-7.0575565E-1,7.3649955E-1,2.3204062E-2,1.062906E-2,6.483993E-3,-1.0240783E-3,1.1694112E-2,-1.5207623E-3,-7.1558477E-3,-1.3773397E-2],"split_indices":[14,13,13,4,15,7,3,0,0,0,0,0,0,0,0],"split_type":[0,0,0,0,0,0,0,0,0,0,0,0,0,0,0],"sum_hessian":[1.0693062E4,5.801454E3,4.891607E3,1.8025913E3,3.9988625E3,1.3572288E3,3.5343784E3,4.0552594E2,1.3970654E3,2.4478752E3,1.5509874E3,1.8535254E2,1.1718762E3,1.4703601E3,2.0640183E3],"tree_param":{"num_deleted":"0","num_feature":"29","num_nodes":"15","size_leaf_vector":"1"}},{"base_weights":[1.5591515E-5,1.3450211E-1,-1.4084281E-1,1.9599088E-1,1.1091853E-2,-5.138514E-2,-2.415372E-1,1.258562E-2,4.6063205E-3,-1.0052756E-3,8.801971E-3,4.6295538E-3,-4.301543E-3,-1.4488466E-2,-6.855869E-3],"categories":[],"categories_nodes":[],"categories_segments":[],"categories_sizes":[],"default_left":[0,0,0,0,0,0,0,0,0,0,0,0,0,0,0],"id":6,"left_children":[1,3,5,7,9,11,13,-1,-1,-1,-1,-1,-1,-1,-1],"loss_changes":[2.0255531E2,4.150611E1,4.7031845E1,2.1106216E1,9.369788E0,1.3809509E1,1.2333191E1,0E0,0E0,0E0,0E0,0E0,0E0,0E0,0E0],"parents":[2147483647,0,0,1,1,2,2,3,3,4,4,5,5,6,6],"right_children":[2,4,6,8,10,12,14,-1,-1,-1,-1,-1,-1,-1,-1],"split_conditions":[1.395114E-2,1.7664142E-1,5.318605E-1,-1.8974994E-1,6.813821E-1,-3.8377702E-1,9.1122043E-1,1.258562E-2,4.6063205E-3,-1.0052756E-3,8.801971E-3,4.6295538E-3,-4.301543E-3,-1.4488466E-2,-6.855869E-3],"split_indices":[14,13,13,8,18,7,7,0,0,0,0,0,0,0,0],"split_type":[0,0,0,0,0,0,0,0,0,0,0,0,0,0,0],"sum_hessian":[1.0690569E4,5.4690054E3,5.221564E3,3.6498777E3,1.8191277E3,2.7658613E3,2.4557026E3,2.374549E3,1.2753286E3,1.530529E3,2.885986E2,5.3614526E2,2.229716E3,1.6785812E3,7.771215E2],"tree_param":{"num_deleted":"0","num_feature":"29","num_nodes":"15","size_leaf_vector":"1"}},{"base_weights":[1.5494052E-5,1.1957121E-1,-1.4392567E-1,2.8018633E-1,7.356463E-2,6.8654665E-3,-2.0163253E-1,2.2758594E-2,1.1483456E-2,5.773379E-3,-1.988324E-3,1.1411454E-2,-1.2568121E-3,-6.3228398E-3,-1.2724129E-2],"categories":[],"categories_nodes":[],"categories_segments":[],"categories_sizes":[],"default_left":[0,0,0,0,0,0,0,0,0,0,0,0,0,0,0],"id":7,"left_children":[1,3,5,7,9,11,13,-1,-1,-1,-1,-1,-1,-1,-1],"loss_changes":[1.8395886E2,4.3129425E1,4.2206352E1,1.1386032E1,2.1567577E1,9.522251E0,1.3904572E1,0E0,0E0,0E0,0E0,0E0,0E0,0E0,0E0],"parents":[2147483647,0,0,1,1,2,2,3,3,4,4,5,5,6,6],"right_children":[2,4,6,8,10,12,14,-1,-1,-1,-1,-1,-1,-1,-1],"split_conditions":[5.204297E-2,-1.153787E0,-3.037369E-1,-1.1904088E0,6.944989E-1,-7.4012876E-1,7.3649955E-1,2.2758594E-2,1.1483456E-2,5.773379E-3,-1.988324E-3,1.1411454E-2,-1.2568121E-3,-6.3228398E-3,-1.2724129E-2],"split_indices":[14,13,13,4,13,7,3,0,0,0,0,0,0,0,0],"split_type":[0,0,0,0,0,0,0,0,0,0,0,0,0,0,0],"sum_hessian":[1.0687696E4,5.8384897E3,4.8492065E3,1.2988702E3,4.5396196E3,1.3423789E3,3.5068276E3,2.8917892E2,1.0096913E3,3.3142083E3,1.2254114E3,1.687768E2,1.173602E3,1.4490464E3,2.0577812E3],"tree_param":{"num_deleted":"0","num_feature":"29","num_nodes":"15","size_leaf_vector":"1"}},{"base_weights":[1.833491E-5,1.1454555E-1,-1.3574624E-1,2.6792696E-1,7.0516095E-2,6.5521947E-3,-1.9040802E-1,1.7517518E-2,7.924012E-3,6.3815913E-3,-5.549454E-4,2.2049585E-2,-4.673794E-4,-6.0095335E-3,-1.201802E-2],"categories":[],"categories_nodes":[],"categories_segments":[],"categories_sizes":[],"default_left":[0,0,0,0,0,0,0,0,0,0,0,0,0,0,0],"id":8,"left_children":[1,3,5,7,9,11,13,-1,-1,-1,-1,-1,-1,-1,-1],"loss_changes":[1.6616373E2,3.9127968E1,3.8036583E1,1.16041565E1,2.1002377E1,9.384888E0,1.2362793E1,0E0,0E0,0E0,0E0,0E0,0E0,0E0,0E0],"parents":[2147483647,0,0,1,1,2,2,3,3,4,4,5,5,6,6],"right_children":[2,4,6,8,10,12,14,-1,-1,-1,-1,-1,-1,-1,-1],"split_conditions":[4.8035108E-2,-1.153787E0,-3.037369E-1,-8.189368E-2,-1.0813749E-1,-1.7461828E0,7.3649955E-1,1.7517518E-2,7.924012E-3,6.3815913E-3,-5.549454E-4,2.2049585E-2,-4.673794E-4,-6.0095335E-3,-1.201802E-2],"split_indices":[14,13,13,26,15,13,3,0,0,0,0,0,0,0,0],"split_type":[0,0,0,0,0,0,0,0,0,0,0,0,0,0,0],"sum_hessian":[1.0684638E4,5.795701E3,4.888936E3,1.2915077E3,4.5041934E3,1.3570563E3,3.5318796E3,7.354475E2,5.560602E2,2.649476E3,1.8547174E3,4.69686E1,1.3100876E3,1.4695543E3,2.0623254E3],"tree_param":{"num_deleted":"0","num_feature":"29","num_nodes":"15","size_leaf_vector":"1"}},{"base_weights":[2.142354E-5,1.15954295E-1,-1.2134642E-1,1.730732E-1,9.674953E-3,-4.1654184E-2,-2.1113633E-1,1.1266742E-2,3.8168037E-3,3.7669637E-3,-3.4936015E-3,-1.2463592E-3,-1.5139095E-2,-1.4048727E-2,-7.042192E-3],"categories":[],"categories_nodes":[],"categories_segments":[],"categories_sizes":[],"default_left":[0,0,0,0,0,0,0,0,0,0,0,0,0,0,0],"id":9,"left_children":[1,3,5,7,9,11,13,-1,-1,-1,-1,-1,-1,-1,-1],"loss_changes":[1.5032233E2,3.316841E1,3.7338936E1,1.7950325E1,9.987877E0,1.2075901E1,1.2007225E1,0E0,0E0,0E0,0E0,0E0,0E0,0E0,0E0],"parents":[2147483647,0,0,1,1,2,2,3,3,4,4,5,5,6,6],"right_children":[2,4,6,8,10,12,14,-1,-1,-1,-1,-1,-1,-1,-1],"split_conditions":[1.395114E-2,1.0978914E-1,5.318605E-1,-1.8974994E-1,-1.6810888E-1,1.4295248E0,5.752608E-1,1.1266742E-2,3.8168037E-3,3.7669637E-3,-3.4936015E-3,-1.2463592E-3,-1.5139095E-2,-1.4048727E-2,-7.042192E-3],"split_indices":[14,13,13,8,15,3,7,0,0,0,0,0,0,0,0],"split_type":[0,0,0,0,0,0,0,0,0,0,0,0,0,0,0],"sum_hessian":[1.0681492E4,5.46309E3,5.2184023E3,3.5529558E3,1.9101338E3,2.765432E3,2.4529707E3,2.305886E3,1.2470698E3,1.0464033E3,8.637305E2,2.599981E3,1.6545093E2,1.2289578E3,1.2240128E3],"tree_param":{"num_deleted":"0","num_feature":"29","num_nodes":"15","size_leaf_vector":"1"}},{"base_weights":[1.8493149E-5,1.0300067E-1,-1.23920076E-1,2.4558608E-1,6.2254757E-2,1.5063973E-2,-1.7205812E-1,2.0362597E-2,9.952947E-3,1.7893001E-2,2.4448873E-3,-1.9806838E-3,8.182689E-3,-8.4394804E-4,-9.688146E-3],"categories":[],"categories_nodes":[],"categories_segments":[],"categories_sizes":[],"default_left":[0,0,0,0,0,0,0,0,0,0,0,0,0,0,0],"id":10,"left_children":[1,3,5,7,9,11,13,-1,-1,-1,-1,-1,-1,-1,-1],"loss_changes":[1.3631627E2,3.387463E1,3.2430603E1,9.668152E0,1.7900911E1,1.0144414E1,1.2122414E1,0E0,0E0,0E0,0E0,0E0,0E0,0E0,0E0],"parents":[2147483647,0,0,1,1,2,2,3,3,4,4,5,5,6,6],"right_children":[2,4,6,8,10,12,14,-1,-1,-1,-1,-1,-1,-1,-1],"split_conditions":[5.204297E-2,-1.153787E0,-3.8581255E-1,-1.1904088E0,-1.6522352E0,6.286743E-1,-8.090065E-2,2.0362597E-2,9.952947E-3,1.7893001E-2,2.4448873E-3,-1.9806838E-3,8.182689E-3,-8.4394804E-4,-9.688146E-3],"split_indices":[14,13,13,4,3,22,23,0,0,0,0,0,0,0,0],"split_type":[0,0,0,0,0,0,0,0,0,0,0,0,0,0,0],"sum_hessian":[1.0678193E4,5.8322607E3,4.8459326E3,1.2951193E3,4.5371416E3,1.2468158E3,3.599117E3,2.8770178E2,1.00741754E3,1.9503395E2,4.3421074E3,9.1196643E2,3.348494E2,4.418532E2,3.1572637E3],"tree_param":{"num_deleted":"0","num_feature":"29","num_nodes":"15","size_leaf_vector":"1"}},{"base_weights":[2.2683867E-5,1.0499866E-1,-1.098446E-1,1.56024E-1,2.832138E-3,-3.629446E-2,-1.9278213E-1,1.060614E-2,3.612727E-3,-9.164352E-4,1.20634185E-2,7.121183E-4,-5.6588775E-3,-1.1146529E-2,-1.7602713E-3],"categories":[],"categories_nodes":[],"categories_segments":[],"categories_sizes":[],"default_left":[0,0,0,0,0,0,0,0,0,0,0,0,0,0,0],"id":11,"left_children":[1,3,5,7,9,11,13,-1,-1,-1,-1,-1,-1,-1,-1],"loss_changes":[1.2314092E2,2.846286E1,3.1816433E1,1.7096672E1,9.185406E0,1.0749311E1,1.163961E1,0E0,0E0,0E0,0E0,0E0,0E0,0E0,0E0],"parents":[2147483647,0,0,1,1,2,2,3,3,4,4,5,5,6,6],"right_children":[2,4,6,8,10,12,14,-1,-1,-1,-1,-1,-1,-1,-1],"split_conditions":[1.395114E-2,1.7664142E-1,5.318605E-1,-1.3936146E-1,4.1701916E-1,8.9688635E-1,7.7168E-1,1.060614E-2,3.612727E-3,-9.164352E-4,1.20634185E-2,7.121183E-4,-5.6588775E-3,-1.1146529E-2,-1.7602713E-3],"split_indices":[14,13,13,1,26,3,12,0,0,0,0,0,0,0,0],"split_type":[0,0,0,0,0,0,0,0,0,0,0,0,0,0,0],"sum_hessian":[1.0674873E4,5.458976E3,5.2158975E3,3.640342E3,1.818634E3,2.7651562E3,2.450741E3,2.1793445E3,1.4609976E3,1.6712374E3,1.4739658E2,1.6689417E3,1.0962146E3,2.056807E3,3.939342E2],"tree_param":{"num_deleted":"0","num_feature":"29","num_nodes":"15","size_leaf_vector":"1"}},{"base_weights":[2.2480921E-5,9.254567E-2,-1.1308734E-1,1.9870156E-1,4.5098137E-2,1.5255907E-2,-1.5723531E-1,1.8077677E-2,7.603982E-3,4.726313E-3,-1.5932315E-3,2.225279E-2,-8.513577E-5,-1.4382924E-2,-6.563395E-3],"categories":[],"categories_nodes":[],"categories_segments":[],"categories_sizes":[],"default_left":[0,0,0,0,0,0,0,0,0,0,0,0,0,0,0],"id":12,"left_children":[1,3,5,7,9,11,13,-1,-1,-1,-1,-1,-1,-1,-1],"loss_changes":[1.1170028E2,2.9562218E1,2.721342E1,1.3711929E1,1.5443012E1,8.966448E0,1.2064369E1,0E0,0E0,0E0,0E0,0E0,0E0,0E0,0E0],"parents":[2147483647,0,0,1,1,2,2,3,3,4,4,5,5,6,6],"right_children":[2,4,6,8,10,12,14,-1,-1,-1,-1,-1,-1,-1,-1],"split_conditions":[5.7001665E-2,-9.203419E-1,-3.8581255E-1,-1.1904088E0,-8.241881E-2,-1.7461828E0,-6.331536E-1,1.8077677E-2,7.603982E-3,4.726313E-3,-1.5932315E-3,2.225279E-2,-8.513577E-5,-1.4382924E-2,-6.563395E-3],"split_indices":[14,13,13,4,15,13,12,0,0,0,0,0,0,0,0],"split_type":[0,0,0,0,0,0,0,0,0,0,0,0,0,0,0],"sum_hessian":[1.0671414E4,5.869983E3,4.801431E3,1.8122316E3,4.0577512E3,1.2290614E3,3.5723696E3,4.0183908E2,1.4103925E3,2.4707334E3,1.587018E3,4.5696026E1,1.1833654E3,5.914903E2,2.9808792E3],"tree_param":{"num_deleted":"0","num_feature":"29","num_nodes":"15","size_leaf_vector":"1"}},{"base_weights":[2.4813824E-5,1.1827842E-1,-8.072407E-2,1.7389597E-1,1.901827E-2,-1.9294236E-2,-1.5753406E-1,1.5056034E-2,7.1566934E-3,-7.510507E-3,2.938614E-3,7.482433E-3,-2.0458167E-3,-2.9923057E-3,-1.034901E-2],"categories":[],"categories_nodes":[],"categories_segments":[],"categories_sizes":[],"default_left":[0,0,0,0,0,0,0,0,0,0,0,0,0,0,0],"id":13,"left_children":[1,3,5,7,9,11,13,-1,-1,-1,-1,-1,-1,-1,-1],"loss_changes":[1.0188521E2,2.3898178E1,2.9913631E1,1.0815956E1,1.04759865E1,1.2879098E1,1.359623E1,0E0,0E0,0E0,0E0,0E0,0E0,0E0,0E0],"parents":[2147483647,0,0,1,1,2,2,3,3,4,4,5,5,6,6],"right_children":[2,4,6,8,10,12,14,-1,-1,-1,-1,-1,-1,-1,-1],"split_conditions":[-1.0931105E-1,-2.0093992E-2,5.318605E-1,-1.3859545E0,-9.422267E-1,-1.4010073E0,1.9543646E-1,1.5056034E-2,7.1566934E-3,-7.510507E-3,2.938614E-3,7.482433E-3,-2.0458167E-3,-2.9923057E-3,-1.034901E-2],"split_indices":[14,13,13,4,14,13,5,0,0,0,0,0,0,0,0],"split_type":[0,0,0,0,0,0,0,0,0,0,0,0,0,0,0],"sum_hessian":[1.0667896E4,4.3285044E3,6.339392E3,2.7736296E3,1.5548749E3,3.5230425E3,2.8163496E3,5.383508E2,2.2352788E3,2.9524997E2,1.2596249E3,3.990635E2,3.123979E3,9.4720996E2,1.8691395E3],"tree_param":{"num_deleted":"0","num_feature":"29","num_nodes":"15","size_leaf_vector":"1"}},{"base_weights":[2.4978217E-5,8.49039E-2,-1.02088585E-1,2.0914017E-1,4.950971E-2,1.5376758E-2,-1.428301E-1,-6.296561E-3,1.1484129E-2,4.002564E-3,-2.808377E-3,-8.203584E-3,2.8582874E-3,-8.213657E-3,1.6164391E-4],"categories":[],"categories_nodes":[],"categories_segments":[],"categories_sizes":[],"default_left":[0,0,0,0,0,0,0,0,0,0,0,0,0,0,0],"id":14,"left_children":[1,3,5,7,9,11,13,-1,-1,-1,-1,-1,-1,-1,-1],"loss_changes":[9.24495E1,2.5602688E1,2.3173157E1,8.916462E0,1.464013E1,9.366125E0,1.1260048E1,0E0,0E0,0E0,0E0,0E0,0E0,0E0,0E0],"parents":[2147483647,0,0,1,1,2,2,3,3,4,4,5,5,6,6],"right_children":[2,4,6,8,10,12,14,-1,-1,-1,-1,-1,-1,-1,-1],"split_conditions":[5.204297E-2,-1.153787E0,-3.8581255E-1,-1.5569166E0,8.435052E-1,-6.448121E-1,1.2962028E0,-6.296561E-3,1.1484129E-2,4.002564E-3,-2.808377E-3,-8.203584E-3,2.8582874E-3,-8.213657E-3,1.6164391E-4],"split_indices":[14,13,13,25,13,6,18,0,0,0,0,0,0,0,0],"split_type":[0,0,0,0,0,0,0,0,0,0,0,0,0,0,0],"sum_hessian":[1.0664484E4,5.823794E3,4.8406904E3,1.2901969E3,4.5335967E3,1.2467375E3,3.5939531E3,7.423327E1,1.2159637E3,3.5173088E3,1.01628784E3,2.3494044E2,1.0117971E3,3.1337698E3,4.6018314E2],"tree_param":{"num_deleted":"0","num_feature":"29","num_nodes":"15","size_leaf_vector":"1"}},{"base_weights":[2.3518623E-5,1.07996E-1,-7.3675714E-2,1.5368274E-1,5.4204985E-3,-1.7648079E-2,-1.4377561E-1,1.0523578E-2,4.392448E-3,2.8511686E-3,-5.6697633E-3,-2.6197624E-4,-1.3368589E-2,-3.4170751E-3,-1.0145833E-2],"categories":[],"categories_nodes":[],"categories_segments":[],"categories_sizes":[],"default_left":[0,0,0,0,0,0,0,0,0,0,0,0,0,0,0],"id":15,"left_children":[1,3,5,7,9,11,13,-1,-1,-1,-1,-1,-1,-1,-1],"loss_changes":[8.485054E1,2.0270767E1,2.4887417E1,1.1170052E1,8.185451E0,1.0916352E1,1.254446E1,0E0,0E0,0E0,0E0,0E0,0E0,0E0,0E0],"parents":[2147483647,0,0,1,1,2,2,3,3,4,4,5,5,6,6],"right_children":[2,4,6,8,10,12,14,-1,-1,-1,-1,-1,-1,-1,-1],"split_conditions":[-1.0931105E-1,1.7664142E-1,5.318605E-1,-2.0277904E-1,1.5801454E-1,1.4295248E0,2.6368287E-1,1.0523578E-2,4.392448E-3,2.8511686E-3,-5.6697633E-3,-2.6197624E-4,-1.3368589E-2,-3.4170751E-3,-1.0145833E-2],"split_indices":[14,13,13,2,6,3,0,0,0,0,0,0,0,0,0],"split_type":[0,0,0,0,0,0,0,0,0,0,0,0,0,0,0],"sum_hessian":[1.06609795E4,4.324678E3,6.3363013E3,2.9916917E3,1.3329865E3,3.5223223E3,2.8139788E3,1.6050039E3,1.3866877E3,9.297199E2,4.0326657E2,3.3565588E3,1.6576352E2,1.2375918E3,1.5763871E3],"tree_param":{"num_deleted":"0","num_feature":"29","num_nodes":"15","size_leaf_vector":"1"}},{"base_weights":[2.1228338E-5,1.0264972E-1,-7.001213E-2,2.2121571E-1,6.577629E-2,-1.677008E-2,-1.3665551E-1,1.3956546E-2,4.15617E-3,6.015815E-3,2.1056168E-5,6.878879E-3,-1.8256843E-3,-3.2468834E-3,-9.645631E-3],"categories":[],"categories_nodes":[],"categories_segments":[],"categories_sizes":[],"default_left":[0,0,0,0,0,0,0,0,0,0,0,0,0,0,0],"id":16,"left_children":[1,3,5,7,9,11,13,-1,-1,-1,-1,-1,-1,-1,-1],"loss_changes":[7.661489E1,1.8888092E1,2.2479128E1,8.176228E0,1.1760574E1,1.0741695E1,1.1339756E1,0E0,0E0,0E0,0E0,0E0,0E0,0E0,0E0],"parents":[2147483647,0,0,1,1,2,2,3,3,4,4,5,5,6,6],"right_children":[2,4,6,8,10,12,14,-1,-1,-1,-1,-1,-1,-1,-1],"split_conditions":[-1.0931105E-1,-1.153787E0,5.318605E-1,3.2753695E-2,-2.0277904E-1,-1.4010073E0,2.6368287E-1,1.3956546E-2,4.15617E-3,6.015815E-3,2.1056168E-5,6.878879E-3,-1.8256843E-3,-3.2468834E-3,-9.645631E-3],"split_indices":[14,13,13,26,2,13,0,0,0,0,0,0,0,0,0],"split_type":[0,0,0,0,0,0,0,0,0,0,0,0,0,0,0],"sum_hessian":[1.0657586E4,4.322634E3,6.3349526E3,1.0242317E3,3.2984019E3,3.5222468E3,2.8127056E3,7.20878E2,3.0335373E2,1.7975088E3,1.5008931E3,3.9877948E2,3.1234673E3,1.2373972E3,1.5753083E3],"tree_param":{"num_deleted":"0","num_feature":"29","num_nodes":"15","size_leaf_vector":"1"}},{"base_weights":[2.2311448E-5,7.340989E-2,-8.965774E-2,1.0353529E-1,-3.919663E-2,1.4766818E-2,-1.2564178E-1,4.9105673E-3,3.643706E-2,-2.2840896E-3,5.1564634E-2,-1.8745484E-3,7.512947E-3,-1.2539456E-2,-5.0374954E-3],"categories":[],"categories_nodes":[],"categories_segments":[],"categories_sizes":[],"default_left":[0,0,0,0,0,0,0,0,0,0,0,0,0,0,0],"id":17,"left_children":[1,3,5,7,9,11,13,-1,-1,-1,-1,-1,-1,-1,-1],"loss_changes":[7.01316E1,1.9884207E1,1.8022186E1,1.5318756E1,8.639083E0,8.714217E0,1.1085678E1,0E0,0E0,0E0,0E0,0E0,0E0,0E0,0E0],"parents":[2147483647,0,0,1,1,2,2,3,3,4,4,5,5,6,6],"right_children":[2,4,6,8,10,12,14,-1,-1,-1,-1,-1,-1,-1,-1],"split_conditions":[5.7001665E-2,6.944989E-1,-3.8581255E-1,1.5820887E0,1.6385199E0,5.982432E-1,-6.331536E-1,4.9105673E-3,3.643706E-2,-2.2840896E-3,5.1564634E-2,-1.8745484E-3,7.512947E-3,-1.2539456E-2,-5.0374954E-3],"split_indices":[14,13,13,0,26,22,12,0,0,0,0,0,0,0,0],"split_type":[0,0,0,0,0,0,0,0,0,0,0,0,0,0,0],"sum_hessian":[1.0654028E4,5.859348E3,4.7946797E3,4.6227217E3,1.2366268E3,1.2289358E3,3.565744E3,4.5848364E3,3.7885082E1,1.2301318E3,6.49497E0,8.8739923E2,3.4153653E2,5.9006006E2,2.9756838E3],"tree_param":{"num_deleted":"0","num_feature":"29","num_nodes":"15","size_leaf_vector":"1"}},{"base_weights":[2.8636572E-5,9.381575E-2,-6.395008E-2,1.4053608E-1,1.0666765E-2,-2.3120726E-2,-1.365949E-1,1.2940374E-2,5.6004585E-3,-7.5201034E-3,2.4261426E-3,3.5457002E-4,-6.4969338E-3,-3.2658824E-3,-9.631409E-3],"categories":[],"categories_nodes":[],"categories_segments":[],"categories_sizes":[],"default_left":[0,0,0,0,0,0,0,0,0,0,0,0,0,0,0],"id":18,"left_children":[1,3,5,7,9,11,13,-1,-1,-1,-1,-1,-1,-1,-1],"loss_changes":[6.3921066E1,1.678077E1,1.8780176E1,9.3027E0,9.490102E0,1.308845E1,9.087166E0,0E0,0E0,0E0,0E0,0E0,0E0,0E0,0E0],"parents":[2147483647,0,0,1,1,2,2,3,3,4,4,5,5,6,6],"right_children":[2,4,6,8,10,12,14,-1,-1,-1,-1,-1,-1,-1,-1],"split_conditions":[-1.0931105E-1,-2.0093992E-2,7.700741E-1,-1.3859545E0,-9.422267E-1,1.1219646E0,2.6368287E-1,1.2940374E-2,5.6004585E-3,-7.5201034E-3,2.4261426E-3,3.5457002E-4,-6.4969338E-3,-3.2658824E-3,-9.631409E-3],"split_indices":[14,13,13,4,14,3,0,0,0,0,0,0,0,0,0],"split_type":[0,0,0,0,0,0,0,0,0,0,0,0,0,0,0],"sum_hessian":[1.0650838E4,4.319041E3,6.331797E3,2.7648293E3,1.5542118E3,4.0543853E3,2.2774116E3,5.357131E2,2.2291162E3,2.9520596E2,1.2590057E3,3.16121E3,8.931752E2,1.003312E3,1.2740996E3],"tree_param":{"num_deleted":"0","num_feature":"29","num_nodes":"15","size_leaf_vector":"1"}},{"base_weights":[2.7009262E-5,6.667904E-2,-8.141618E-2,2.046092E-1,4.364325E-2,1.5134117E-2,-1.1471181E-1,3.551756E-2,9.04199E-3,4.405882E-3,-6.828698E-4,3.5569065E-3,-5.3234072E-3,-7.7913003E-3,-2.0239686E-3],"categories":[],"categories_nodes":[],"categories_segments":[],"categories_sizes":[],"default_left":[0,0,0,0,0,0,0,0,0,0,0,0,0,0,0],"id":19,"left_children":[1,3,5,7,9,11,13,-1,-1,-1,-1,-1,-1,-1,-1],"loss_changes":[5.780912E1,1.8599268E1,1.5409567E1,9.943581E0,1.2793448E1,8.383491E0,1.0871109E1,0E0,0E0,0E0,0E0,0E0,0E0,0E0,0E0],"parents":[2147483647,0,0,1,1,2,2,3,3,4,4,5,5,6,6],"right_children":[2,4,6,8,10,12,14,-1,-1,-1,-1,-1,-1,-1,-1],"split_conditions":[5.7001665E-2,-1.3725039E0,-3.8581255E-1,-2.4303794E0,-1.3457592E-1,-7.008703E-2,5.3798415E-2,3.551756E-2,9.04199E-3,4.405882E-3,-6.828698E-4,3.5569065E-3,-5.3234072E-3,-7.7913003E-3,-2.0239686E-3],"split_indices":[14,13,13,23,15,7,12,0,0,0,0,0,0,0,0],"split_type":[0,0,0,0,0,0,0,0,0,0,0,0,0,0,0],"sum_hessian":[1.0647477E4,5.855552E3,4.791925E3,8.3685815E2,5.0186934E3,1.228905E3,3.5630195E3,3.6269337E1,8.005888E2,2.8252856E3,2.1934077E3,8.4168256E2,3.8722253E2,2.2923083E3,1.2707112E3],"tree_param":{"num_deleted":"0","num_feature":"29","num_nodes":"15","size_leaf_vector":"1"}},{"base_weights":[2.9552253E-5,1.0332023E-1,-4.8511975E-2,1.2544607E-1,-1.0945391E-1,1.1559103E-1,-6.884321E-2,1.46086905E-2,5.138093E-3,-7.5638243E-3,2.7837962E-2,5.010513E-3,3.804074E-2,-1.7467417E-3,-6.454897E-3],"categories":[],"categories_nodes":[],"categories_segments":[],"categories_sizes":[],"default_left":[0,0,0,0,0,0,0,0,0,0,0,0,0,0,0],"id":20,"left_children":[1,3,5,7,9,11,13,-1,-1,-1,-1,-1,-1,-1,-1],"loss_changes":[5.3378403E1,1.6037285E1,2.4171947E1,1.1631996E1,9.031771E0,7.85063E0,1.3163002E1,0E0,0E0,0E0,0E0,0E0,0E0,0E0,0E0],"parents":[2147483647,0,0,1,1,2,2,3,3,4,4,5,5,6,6],"right_children":[2,4,6,8,10,12,14,-1,-1,-1,-1,-1,-1,-1,-1],"split_conditions":[-2.46174E-1,1.221468E0,-1.2729784E0,-1.444607E0,3.9818862E-1,1.7237406E-2,8.9688635E-1,1.46086905E-2,5.138093E-3,-7.5638243E-3,2.7837962E-2,5.010513E-3,3.804074E-2,-1.7467417E-3,-6.454897E-3],"split_indices":[8,13,13,13,23,7,3,0,0,0,0,0,0,0,0],"split_type":[0,0,0,0,0,0,0,0,0,0,0,0,0,0,0],"sum_hessian":[1.0644112E4,3.402616E3,7.241496E3,3.0824866E3,3.201294E2,7.977549E2,6.443741E3,3.6773965E2,2.7147468E3,3.019471E2,1.8182272E1,7.8030927E2,1.7445608E1,4.1243447E3,2.3193967E3],"tree_param":{"num_deleted":"0","num_feature":"29","num_nodes":"15","size_leaf_vector":"1"}},{"base_weights":[3.5736102E-5,8.171896E-2,-5.565247E-2,1.1984963E-1,-3.6176099E-3,-1.8443206E-2,-1.2191445E-1,8.462752E-3,3.1354793E-3,-1.8018974E-3,9.393417E-3,4.3436847E-4,-5.7208342E-3,-6.734627E-3,7.755366E-3],"categories":[],"categories_nodes":[],"categories_segments":[],"categories_sizes":[],"default_left":[0,0,0,0,0,0,0,0,0,0,0,0,0,0,0],"id":21,"left_children":[1,3,5,7,9,11,13,-1,-1,-1,-1,-1,-1,-1,-1],"loss_changes":[4.841333E1,1.4039732E1,1.560121E1,8.407955E0,8.284841E0,1.0556683E1,8.076202E0,0E0,0E0,0E0,0E0,0E0,0E0,0E0,0E0],"parents":[2147483647,0,0,1,1,2,2,3,3,4,4,5,5,6,6],"right_children":[2,4,6,8,10,12,14,-1,-1,-1,-1,-1,-1,-1,-1],"split_conditions":[-1.0931105E-1,1.7664142E-1,7.700741E-1,-2.0277904E-1,7.4801654E-1,1.1219646E0,2.783726E0,8.462752E-3,3.1354793E-3,-1.8018974E-3,9.393417E-3,4.3436847E-4,-5.7208342E-3,-6.734627E-3,7.755366E-3],"split_indices":[14,13,13,2,22,3,7,0,0,0,0,0,0,0,0],"split_type":[0,0,0,0,0,0,0,0,0,0,0,0,0,0,0],"sum_hessian":[1.0641117E4,4.3135513E3,6.3275664E3,2.981108E3,1.3324434E3,4.0529307E3,2.2746357E3,1.5977079E3,1.3834001E3,1.1402075E3,1.9223586E2,3.160425E3,8.9250555E2,2.1748318E3,9.98039E1],"tree_param":{"num_deleted":"0","num_feature":"29","num_nodes":"15","size_leaf_vector":"1"}},{"base_weights":[3.562129E-5,9.459989E-2,-4.437995E-2,1.1513439E-1,-1.0263817E-1,1.08351484E-1,-6.329783E-2,1.3614065E-2,4.690214E-3,-7.1268314E-3,2.6630333E-2,4.9341493E-3,5.2743744E-2,-1.2761033E-3,-5.5230972E-3],"categories":[],"categories_nodes":[],"categories_segments":[],"categories_sizes":[],"default_left":[0,0,0,0,0,0,0,0,0,0,0,0,0,0,0],"id":22,"left_children":[1,3,5,7,9,11,13,-1,-1,-1,-1,-1,-1,-1,-1],"loss_changes":[4.468905E1,1.3783819E1,2.0924612E1,1.029911E1,8.21576E0,7.2011595E0,1.1475225E1,0E0,0E0,0E0,0E0,0E0,0E0,0E0,0E0],"parents":[2147483647,0,0,1,1,2,2,3,3,4,4,5,5,6,6],"right_children":[2,4,6,8,10,12,14,-1,-1,-1,-1,-1,-1,-1,-1],"split_conditions":[-2.46174E-1,1.221468E0,-1.2729784E0,-1.444607E0,3.9818862E-1,7.27437E-2,5.318605E-1,1.3614065E-2,4.690214E-3,-7.1268314E-3,2.6630333E-2,4.9341493E-3,5.2743744E-2,-1.2761033E-3,-5.5230972E-3],"split_indices":[8,13,13,13,23,7,13,0,0,0,0,0,0,0,0],"split_type":[0,0,0,0,0,0,0,0,0,0,0,0,0,0,0],"sum_hessian":[1.0637932E4,3.3993394E3,7.238593E3,3.0791814E3,3.2015802E2,7.9726154E2,6.441331E3,3.6659244E2,2.7125889E3,3.0196765E2,1.8190367E1,7.9029315E2,6.968388E0,3.5774993E3,2.8638318E3],"tree_param":{"num_deleted":"0","num_feature":"29","num_nodes":"15","size_leaf_vector":"1"}},{"base_weights":[4.273374E-5,5.6110907E-2,-6.845007E-2,2.204755E-1,4.0947486E-2,-1.1047425E-1,-8.414771E-3,-1.848695E-2,1.2252033E-2,1.7974599E-3,3.023232E-2,-2.9982694E-3,-9.195635E-3,6.2046847E-3,-3.272739E-3],"categories":[],"categories_nodes":[],"categories_segments":[],"categories_sizes":[],"default_left":[0,0,0,0,0,0,0,0,0,0,0,0,0,0,0],"id":23,"left_children":[1,3,5,7,9,11,13,-1,-1,-1,-1,-1,-1,-1,-1],"loss_changes":[4.084808E1,1.4568321E1,1.2078619E1,7.2498474E0,1.5069243E1,1.0435604E1,1.4917252E1,0E0,0E0,0E0,0E0,0E0,0E0,0E0,0E0],"parents":[2147483647,0,0,1,1,2,2,3,3,4,4,5,5,6,6],"right_children":[2,4,6,8,10,12,14,-1,-1,-1,-1,-1,-1,-1,-1],"split_conditions":[5.7001665E-2,-1.6276541E0,-9.194871E-2,-2.5330126E0,1.5820887E0,6.3349235E-1,5.2696526E-1,-1.848695E-2,1.2252033E-2,1.7974599E-3,3.023232E-2,-2.9982694E-3,-9.195635E-3,6.2046847E-3,-3.272739E-3],"split_indices":[14,3,12,5,0,13,14,0,0,0,0,0,0,0,0],"split_type":[0,0,0,0,0,0,0,0,0,0,0,0,0,0,0],"sum_hessian":[1.0634783E4,5.847887E3,4.7868965E3,4.9278476E2,5.355102E3,2.8153418E3,1.9715547E3,1.9129072E1,4.7365567E2,5.3090903E3,4.601166E1,1.6691587E3,1.1461831E3,5.9293774E2,1.378617E3],"tree_param":{"num_deleted":"0","num_feature":"29","num_nodes":"15","size_leaf_vector":"1"}},{"base_weights":[4.2315314E-5,8.686374E-2,-4.0719226E-2,1.0625268E-1,-9.918076E-2,1.0235003E-1,-5.8437895E-2,7.474323E-3,1.3813901E-3,-5.975693E-3,5.1976603E-2,4.400156E-3,3.5269596E-2,-3.6319443E-3,3.1690875E-3],"categories":[],"categories_nodes":[],"categories_segments":[],"categories_sizes":[],"default_left":[0,0,0,0,0,0,0,0,0,0,0,0,0,0,0],"id":24,"left_children":[1,3,5,7,9,11,13,-1,-1,-1,-1,-1,-1,-1,-1],"loss_changes":[3.7633255E1,1.2265812E1,1.8350487E1,1.0456291E1,7.5604687E0,6.840476E0,1.1144989E1,0E0,0E0,0E0,0E0,0E0,0E0,0E0,0E0],"parents":[2147483647,0,0,1,1,2,2,3,3,4,4,5,5,6,6],"right_children":[2,4,6,8,10,12,14,-1,-1,-1,-1,-1,-1,-1,-1],"split_conditions":[-2.46174E-1,1.221468E0,-1.2729784E0,1.5801454E-1,5.150526E-1,1.7237406E-2,1.2962028E0,7.474323E-3,1.3813901E-3,-5.975693E-3,5.1976603E-2,4.400156E-3,3.5269596E-2,-3.6319443E-3,3.1690875E-3],"split_indices":[8,13,13,6,14,7,18,0,0,0,0,0,0,0,0],"split_type":[0,0,0,0,0,0,0,0,0,0,0,0,0,0,0],"sum_hessian":[1.0631942E4,3.396443E3,7.2354995E3,3.076273E3,3.2017004E2,7.9681854E2,6.438681E3,1.9842721E3,1.092001E3,3.1543265E2,4.737387E0,7.794213E2,1.7397198E1,5.7668237E3,6.718573E2],"tree_param":{"num_deleted":"0","num_feature":"29","num_nodes":"15","size_leaf_vector":"1"}},{"base_weights":[4.949042E-5,4.4483993E-2,-7.378146E-2,4.1846097E-2,8.587861E-1,-1.2514111E-1,-1.1774802E-2,1.032197E-2,1.4299197E-3,7.8174524E-2,1.8451024E-2,-3.1865134E-3,-1.051741E-2,5.1166173E-3,-3.4719359E-3],"categories":[],"categories_nodes":[],"categories_segments":[],"categories_sizes":[],"default_left":[0,0,0,0,0,0,0,0,0,0,0,0,0,0,0],"id":25,"left_children":[1,3,5,7,9,11,13,-1,-1,-1,-1,-1,-1,-1,-1],"loss_changes":[3.4878754E1,1.4220995E1,1.2719637E1,1.4421887E1,6.802191E0,1.141851E1,1.19218445E1,0E0,0E0,0E0,0E0,0E0,0E0,0E0,0E0],"parents":[2147483647,0,0,1,1,2,2,3,3,4,4,5,5,6,6],"right_children":[2,4,6,8,10,12,14,-1,-1,-1,-1,-1,-1,-1,-1],"split_conditions":[1.4983684E-1,1.1682861E0,-7.678366E-2,-1.6276541E0,9.7339445E-1,6.3349235E-1,7.3649955E-1,1.032197E-2,1.4299197E-3,7.8174524E-2,1.8451024E-2,-3.1865134E-3,-1.051741E-2,5.1166173E-3,-3.4719359E-3],"split_indices":[14,19,12,3,4,13,3,0,0,0,0,0,0,0,0],"split_type":[0,0,0,0,0,0,0,0,0,0,0,0,0,0,0],"sum_hessian":[1.0629687E4,6.636166E3,3.9935203E3,6.615786E3,2.0380167E1,2.1837327E3,1.8097876E3,4.9173575E2,6.1240503E3,7.4575186E0,1.2922648E1,1.2700933E3,9.136395E2,6.0728955E2,1.202498E3],"tree_param":{"num_deleted":"0","num_feature":"29","num_nodes":"15","size_leaf_vector":"1"}},{"base_weights":[5.604302E-5,5.681703E-2,-5.3130437E-2,3.2103594E-2,2.2335893E-1,1.5887596E-1,-6.564934E-2,2.6163438E-3,-6.0470775E-3,1.6035208E-2,3.014096E-3,-1.6451387E-2,1.0055254E-2,-1.2048404E-2,-2.7860561E-3],"categories":[],"categories_nodes":[],"categories_segments":[],"categories_sizes":[],"default_left":[0,0,0,0,0,0,0,0,0,0,0,0,0,0,0],"id":26,"left_children":[1,3,5,7,9,11,13,-1,-1,-1,-1,-1,-1,-1,-1],"loss_changes":[3.2088215E1,2.1155327E1,1.4574221E1,1.3867653E1,1.05252075E1,6.376046E0,9.006474E0,0E0,0E0,0E0,0E0,0E0,0E0,0E0,0E0],"parents":[2147483647,0,0,1,1,2,2,3,3,4,4,5,5,6,6],"right_children":[2,4,6,8,10,12,14,-1,-1,-1,-1,-1,-1,-1,-1],"split_conditions":[-5.4566406E-2,6.843787E-1,-1.4611261E0,1.1528119E0,1.6574284E-1,-8.1328034E-1,-4.6400595E-1,2.6163438E-3,-6.0470775E-3,1.6035208E-2,3.014096E-3,-1.6451387E-2,1.0055254E-2,-1.2048404E-2,-2.7860561E-3],"split_indices":[23,22,13,13,0,6,26,0,0,0,0,0,0,0,0],"split_type":[0,0,0,0,0,0,0,0,0,0,0,0,0,0,0],"sum_hessian":[1.0627049E4,5.140743E3,5.4863057E3,4.4775107E3,6.632326E2,3.0524918E2,5.181056E3,3.9554927E3,5.22018E2,4.147125E2,2.4852008E2,2.377442E1,2.8147473E2,2.764289E2,4.9046274E3],"tree_param":{"num_deleted":"0","num_feature":"29","num_nodes":"15","size_leaf_vector":"1"}},{"base_weights":[5.3163265E-5,7.752851E-2,-3.6301214E-2,2.2729762E-1,5.572032E-2,6.1291584E-4,-9.2742056E-2,1.3061196E-2,-2.4376174E-2,5.9405323E-3,-3.5516347E-4,-3.054419E-2,2.5249363E-4,-9.438456E-4,-6.627316E-3],"categories":[],"categories_nodes":[],"categories_segments":[],"categories_sizes":[],"default_left":[0,0,0,0,0,0,0,0,0,0,0,0,0,0,0],"id":27,"left_children":[1,3,5,7,9,11,13,-1,-1,-1,-1,-1,-1,-1,-1],"loss_changes":[2.993117E1,1.1072603E1,1.50695095E1,1.058107E1,1.1748377E1,1.1870206E1,8.406345E0,0E0,0E0,0E0,0E0,0E0,0E0,0E0,0E0],"parents":[2147483647,0,0,1,1,2,2,3,3,4,4,5,5,6,6],"right_children":[2,4,6,8,10,12,14,-1,-1,-1,-1,-1,-1,-1,-1],"split_conditions":[-2.46174E-1,-1.3853995E0,5.318605E-1,-1.967028E-1,-1.5189672E-1,-1.9355708E0,1.9543646E-1,1.3061196E-2,-2.4376174E-2,5.9405323E-3,-3.5516347E-4,-3.054419E-2,2.5249363E-4,-9.438456E-4,-6.627316E-3],"split_indices":[8,13,13,14,6,1,5,0,0,0,0,0,0,0,0],"split_type":[0,0,0,0,0,0,0,0,0,0,0,0,0,0,0],"sum_hessian":[1.0624824E4,3.3929426E3,7.231882E3,4.3005936E2,2.9628833E3,4.372872E3,2.85901E3,4.1117886E2,1.888049E1,1.4778588E3,1.4850245E3,3.0515942E1,4.342356E3,1.00167194E3,1.857338E3],"tree_param":{"num_deleted":"0","num_feature":"29","num_nodes":"15","size_leaf_vector":"1"}},{"base_weights":[4.692048E-5,3.552866E-2,-7.3686935E-2,5.248069E-2,-8.3578154E-2,-1.3240294E-1,-1.1020173E-2,2.4853605E-3,3.428444E-2,-6.1122417E-3,5.9850053E-3,-9.30434E-3,-7.163705E-5,4.7112363E-3,-2.838264E-3],"categories":[],"categories_nodes":[],"categories_segments":[],"categories_sizes":[],"default_left":[0,0,0,0,0,0,0,0,0,0,0,0,0,0,0],"id":28,"left_children":[1,3,5,7,9,11,13,-1,-1,-1,-1,-1,-1,-1,-1],"loss_changes":[2.779506E1,1.4486642E1,1.2698717E1,1.0994049E1,7.0419264E0,1.2527985E1,8.048843E0,0E0,0E0,0E0,0E0,0E0,0E0,0E0,0E0],"parents":[2147483647,0,0,1,1,2,2,3,3,4,4,5,5,6,6],"right_children":[2,4,6,8,10,12,14,-1,-1,-1,-1,-1,-1,-1,-1],"split_conditions":[2.2353782E-1,1.1528119E0,-5.558727E-2,1.1299994E0,7.174107E-1,7.203201E-1,7.01776E-1,2.4853605E-3,3.428444E-2,-6.1122417E-3,5.9850053E-3,-9.30434E-3,-7.163705E-5,4.7112363E-3,-2.838264E-3],"split_indices":[14,13,12,19,18,8,3,0,0,0,0,0,0,0,0],"split_type":[0,0,0,0,0,0,0,0,0,0,0,0,0,0,0],"sum_hessian":[1.0622187E4,7.1716226E3,3.4505645E3,6.2785757E3,8.930469E2,1.7808622E3,1.6697024E3,6.252269E3,2.6306723E1,7.5065857E2,1.4238828E2,1.2628195E3,5.1804266E2,5.0554492E2,1.1641575E3],"tree_param":{"num_deleted":"0","num_feature":"29","num_nodes":"15","size_leaf_vector":"1"}},{"base_weights":[4.704212E-5,4.0216018E-2,-6.1362404E-2,1.0492234E-1,-2.3132192E-3,-1.7888281E-2,-1.1009423E-1,4.0037674E-3,1.4186139E-2,-3.043894E-2,4.0708997E-5,-1.9369418E-3,1.4537617E-2,-6.756831E-3,3.6686498E-3],"categories":[],"categories_nodes":[],"categories_segments":[],"categories_sizes":[],"default_left":[0,0,0,0,0,0,0,0,0,0,0,0,0,0,0],"id":29,"left_children":[1,3,5,7,9,11,13,-1,-1,-1,-1,-1,-1,-1,-1],"loss_changes":[2.6201843E1,1.767176E1,8.89698E0,1.12917595E1,7.3514986E0,1.4305243E1,9.108185E0,0E0,0E0,0E0,0E0,0E0,0E0,0E0,0E0],"parents":[2147483647,0,0,1,1,2,2,3,3,4,4,5,5,6,6],"right_children":[2,4,6,8,10,12,14,-1,-1,-1,-1,-1,-1,-1,-1],"split_conditions":[3.9157295E-1,-2.589745E-1,2.094015E-1,6.9848245E-1,-1.3685476E0,9.035587E-1,1.1831023E0,4.0037674E-3,1.4186139E-2,-3.043894E-2,4.0708997E-5,-1.9369418E-3,1.4537617E-2,-6.756831E-3,3.6686498E-3],"split_indices":[13,23,0,22,0,18,6,0,0,0,0,0,0,0,0],"split_type":[0,0,0,0,0,0,0,0,0,0,0,0,0,0,0],"sum_hessian":[1.061999E4,6.4205454E3,4.1994443E3,2.5457834E3,3.8747622E3,2.2201736E3,1.9792708E3,2.2364438E3,3.0933954E2,1.8885187E1,3.855877E3,2.0804978E3,1.3967581E2,1.7417885E3,2.3748235E2],"tree_param":{"num_deleted":"0","num_feature":"29","num_nodes":"15","size_leaf_vector":"1"}},{"base_weights":[4.4644825E-5,6.948188E-2,-3.2523423E-2,1.15053E-1,4.3671266E-3,9.0988815E-2,-4.7818873E-2,6.2739137E-3,-1.32986205E-2,4.537261E-3,-5.3508594E-3,3.748112E-3,2.988143E-2,-3.584845E-3,1.0008235E-3],"categories":[],"categories_nodes":[],"categories_segments":[],"categories_sizes":[],"default_left":[0,0,0,0,0,0,0,0,0,0,0,0,0,0,0],"id":30,"left_children":[1,3,5,7,9,11,13,-1,-1,-1,-1,-1,-1,-1,-1],"loss_changes":[2.4015295E1,1.0060514E1,1.3661045E1,7.956436E0,1.3450389E1,6.425881E0,1.0421453E1,0E0,0E0,0E0,0E0,0E0,0E0,0E0,0E0],"parents":[2147483647,0,0,1,1,2,2,3,3,4,4,5,5,6,6],"right_children":[2,4,6,8,10,12,14,-1,-1,-1,-1,-1,-1,-1,-1],"split_conditions":[-2.46174E-1,1.0343187E-2,-1.2729784E0,1.5920953E0,-2.4769747E-1,-1.2851567E0,5.982432E-1,6.2739137E-3,-1.32986205E-2,4.537261E-3,-5.3508594E-3,3.748112E-3,2.988143E-2,-3.584845E-3,1.0008235E-3],"split_indices":[8,6,13,13,13,13,22,0,0,0,0,0,0,0,0],"split_type":[0,0,0,0,0,0,0,0,0,0,0,0,0,0,0],"sum_hessian":[1.0617488E4,3.3895706E3,7.2279175E3,1.9935797E3,1.3959908E3,7.959111E2,6.432007E3,1.9411387E3,5.2441032E1,7.8635834E2,6.096325E2,7.726187E2,2.329235E1,4.75736E3,1.6746467E3],"tree_param":{"num_deleted":"0","num_feature":"29","num_nodes":"15","size_leaf_vector":"1"}},{"base_weights":[4.5101122E-5,3.096948E-2,-6.9062635E-2,2.8232226E-2,7.318666E-1,-1.3335797E-1,-8.173889E-3,8.873566E-3,8.748152E-4,4.327561E-2,-3.5054658E-2,-9.802136E-3,3.0093107E-4,5.375803E-3,-2.9979276E-3],"categories":[],"categories_nodes":[],"categories_segments":[],"categories_sizes":[],"default_left":[0,0,0,0,0,0,0,0,0,0,0,0,0,0,0],"id":31,"left_children":[1,3,5,7,9,11,13,-1,-1,-1,-1,-1,-1,-1,-1],"loss_changes":[2.269036E1,1.40518055E1,1.2848573E1,1.1705141E1,6.063712E0,1.39487E1,1.0112388E1,0E0,0E0,0E0,0E0,0E0,0E0,0E0,0E0],"parents":[2147483647,0,0,1,1,2,2,3,3,4,4,5,5,6,6],"right_children":[2,4,6,8,10,12,14,-1,-1,-1,-1,-1,-1,-1,-1],"split_conditions":[2.5046858E-1,1.1682861E0,-7.678366E-2,-1.6276541E0,2.5748477E0,7.203201E-1,7.3649955E-1,8.873566E-3,8.748152E-4,4.327561E-2,-3.5054658E-2,-9.802136E-3,3.0093107E-4,5.375803E-3,-2.9979276E-3],"split_indices":[14,19,12,3,23,8,3,0,0,0,0,0,0,0,0],"split_type":[0,0,0,0,0,0,0,0,0,0,0,0,0,0,0],"sum_hessian":[1.061529E4,7.334012E3,3.2812773E3,7.306518E3,2.7494291E1,1.5954136E3,1.6858636E3,4.8929813E2,6.8172197E3,2.5510994E1,1.9832966E0,1.100194E3,4.9521964E2,5.2095154E2,1.1649122E3],"tree_param":{"num_deleted":"0","num_feature":"29","num_nodes":"15","size_leaf_vector":"1"}},{"base_weights":[4.3861837E-5,3.6602966E-2,-5.5842414E-2,9.4628386E-2,-1.4905656E-3,1.2636945E-1,-6.609692E-2,-1.5134147E-2,5.252267E-3,3.238941E-4,-1.1209156E-2,-8.287549E-3,1.4149404E-2,-1.9156717E-2,-2.915715E-3],"categories":[],"categories_nodes":[],"categories_segments":[],"categories_sizes":[],"default_left":[0,0,0,0,0,0,0,0,0,0,0,0,0,0,0],"id":32,"left_children":[1,3,5,7,9,11,13,-1,-1,-1,-1,-1,-1,-1,-1],"loss_changes":[2.1688478E1,1.4184766E1,7.8522177E0,1.0557829E1,6.877635E0,1.0295642E1,9.785391E0,0E0,0E0,0E0,0E0,0E0,0E0,0E0,0E0],"parents":[2147483647,0,0,1,1,2,2,3,3,4,4,5,5,6,6],"right_children":[2,4,6,8,10,12,14,-1,-1,-1,-1,-1,-1,-1,-1],"split_conditions":[3.9157295E-1,-2.589745E-1,-1.385396E0,-2.6240609E0,1.4295248E0,-1.6620648E0,-1.3426858E0,-1.5134147E-2,5.252267E-3,3.238941E-4,-1.1209156E-2,-8.287549E-3,1.4149404E-2,-1.9156717E-2,-2.915715E-3],"split_indices":[13,23,2,22,3,0,24,0,0,0,0,0,0,0,0],"split_type":[0,0,0,0,0,0,0,0,0,0,0,0,0,0,0],"sum_hessian":[1.0613205E4,6.4162407E3,4.196965E3,2.5422742E3,3.8739666E3,2.2300876E2,3.9739558E3,6.423513E1,2.478039E3,3.7410732E3,1.3289322E2,7.781403E1,1.4519473E2,9.405956E1,3.8798962E3],"tree_param":{"num_deleted":"0","num_feature":"29","num_nodes":"15","size_leaf_vector":"1"}},{"base_weights":[3.8430666E-5,4.442154E-2,-4.152932E-2,2.2114918E-2,1.9493857E-1,1.4556976E-1,-5.257966E-2,1.9398239E-3,-5.1978156E-3,1.6566526E-2,4.6601337E-3,8.8004506E-4,1.5097119E-2,-9.687585E-3,-2.029773E-3],"categories":[],"categories_nodes":[],"categories_segments":[],"categories_sizes":[],"default_left":[0,0,0,0,0,0,0,0,0,0,0,0,0,0,0],"id":33,"left_children":[1,3,5,7,9,11,13,-1,-1,-1,-1,-1,-1,-1,-1],"loss_changes":[1.958003E1,1.7228844E1,1.1338283E1,9.407546E0,9.159954E0,6.1158123E0,8.748115E0,0E0,0E0,0E0,0E0,0E0,0E0,0E0,0E0],"parents":[2147483647,0,0,1,1,2,2,3,3,4,4,5,5,6,6],"right_children":[2,4,6,8,10,12,14,-1,-1,-1,-1,-1,-1,-1,-1],"split_conditions":[-5.4566406E-2,6.843787E-1,-1.4611261E0,1.1528119E0,-1.0754996E-1,-3.5761142E-1,-3.3953896E-1,1.9398239E-3,-5.1978156E-3,1.6566526E-2,4.6601337E-3,8.8004506E-4,1.5097119E-2,-9.687585E-3,-2.029773E-3],"split_indices":[23,22,13,13,2,6,26,0,0,0,0,0,0,0,0],"split_type":[0,0,0,0,0,0,0,0,0,0,0,0,0,0,0],"sum_hessian":[1.0611023E4,5.1316943E3,5.4793296E3,4.4703374E3,6.61357E2,3.048908E2,5.1744385E3,3.9485618E3,5.2177563E2,2.8158887E2,3.7976813E2,1.682855E2,1.366053E2,4.0370364E2,4.770735E3],"tree_param":{"num_deleted":"0","num_feature":"29","num_nodes":"15","size_leaf_vector":"1"}},{"base_weights":[3.8985418E-5,3.384071E-2,-5.162762E-2,8.700128E-2,-1.0320002E-3,-1.2096916E-2,-9.598596E-2,-1.4460725E-2,4.8445854E-3,-2.9012034E-2,9.793922E-5,-1.8647095E-3,1.017713E-2,-5.999267E-3,3.9813356E-3],"categories":[],"categories_nodes":[],"categories_segments":[],"categories_sizes":[],"default_left":[0,0,0,0,0,0,0,0,0,0,0,0,0,0,0],"id":34,"left_children":[1,3,5,7,9,11,13,-1,-1,-1,-1,-1,-1,-1,-1],"loss_changes":[1.8531223E1,1.1891554E1,7.3574963E0,9.482832E0,6.7128544E0,1.2070852E1,8.343346E0,0E0,0E0,0E0,0E0,0E0,0E0,0E0,0E0],"parents":[2147483647,0,0,1,1,2,2,3,3,4,4,5,5,6,6],"right_children":[2,4,6,8,10,12,14,-1,-1,-1,-1,-1,-1,-1,-1],"split_conditions":[3.9157295E-1,-2.589745E-1,2.094015E-1,-2.6240609E0,-1.3685476E0,6.350892E-1,1.1831023E0,-1.4460725E-2,4.8445854E-3,-2.9012034E-2,9.793922E-5,-1.8647095E-3,1.017713E-2,-5.999267E-3,3.9813356E-3],"split_indices":[13,23,0,22,0,18,6,0,0,0,0,0,0,0,0],"split_type":[0,0,0,0,0,0,0,0,0,0,0,0,0,0,0],"sum_hessian":[1.0608975E4,6.413458E3,4.1955166E3,2.539977E3,3.873481E3,2.2191528E3,1.9763638E3,6.4340164E1,2.475637E3,1.8906744E1,3.8545742E3,1.987717E3,2.3143582E2,1.7390239E3,2.3733978E2],"tree_param":{"num_deleted":"0","num_feature":"29","num_nodes":"15","size_leaf_vector":"1"}},{"base_weights":[3.413909E-5,2.700987E-2,-6.02578E-2,2.437846E-2,7.018496E-1,-1.2139071E-1,-2.4038511E-3,1.2769972E-3,-6.227813E-2,4.15323E-2,-3.3754233E-2,-9.056954E-3,5.664024E-4,5.489172E-3,-2.4776936E-3],"categories":[],"categories_nodes":[],"categories_segments":[],"categories_sizes":[],"default_left":[0,0,0,0,0,0,0,0,0,0,0,0,0,0,0],"id":35,"left_children":[1,3,5,7,9,11,13,-1,-1,-1,-1,-1,-1,-1,-1],"loss_changes":[1.7254112E1,1.2998222E1,1.159784E1,1.0802253E1,5.6030903E0,1.2645536E1,8.922969E0,0E0,0E0,0E0,0E0,0E0,0E0,0E0,0E0],"parents":[2147483647,0,0,1,1,2,2,3,3,4,4,5,5,6,6],"right_children":[2,4,6,8,10,12,14,-1,-1,-1,-1,-1,-1,-1,-1],"split_conditions":[2.5046858E-1,1.1682861E0,-7.678366E-2,3.086785E0,2.5748477E0,7.203201E-1,7.01776E-1,1.2769972E-3,-6.227813E-2,4.15323E-2,-3.3754233E-2,-9.056954E-3,5.664024E-4,5.489172E-3,-2.4776936E-3],"split_indices":[14,19,12,16,23,8,3,0,0,0,0,0,0,0,0],"split_type":[0,0,0,0,0,0,0,0,0,0,0,0,0,0,0],"sum_hessian":[1.060665E4,7.3283584E3,3.2782915E3,7.3009263E3,2.7432465E1,1.5934412E3,1.6848502E3,7.295234E3,5.692298E0,2.5448767E1,1.983698E0,1.0985311E3,4.9491006E2,4.9817642E2,1.1866738E3],"tree_param":{"num_deleted":"0","num_feature":"29","num_nodes":"15","size_leaf_vector":"1"}},{"base_weights":[2.6724478E-5,9.3597025E-2,-1.6548898E-2,-1.9446187E-1,1.10366814E-1,4.0017873E-2,-4.115235E-2,3.288592E-2,-1.655071E-2,2.8073965E-2,4.7707325E-3,5.08993E-3,-1.1201418E-3,-2.748092E-3,3.8291682E-3],"categories":[],"categories_nodes":[],"categories_segments":[],"categories_sizes":[],"default_left":[0,0,0,0,0,0,0,0,0,0,0,0,0,0,0],"id":36,"left_children":[1,3,5,7,9,11,13,-1,-1,-1,-1,-1,-1,-1,-1],"loss_changes":[1.6451448E1,7.7323904E0,1.2542394E1,1.0478653E1,1.0125208E1,1.0537111E1,1.0214791E1,0E0,0E0,0E0,0E0,0E0,0E0,0E0,0E0],"parents":[2147483647,0,0,1,1,2,2,3,3,4,4,5,5,6,6],"right_children":[2,4,6,8,10,12,14,-1,-1,-1,-1,-1,-1,-1,-1],"split_conditions":[-1.193902E0,-1.5569166E0,-2.46174E-1,-3.138091E0,-1.8379196E0,-1.5189672E-1,1.2962028E0,3.288592E-2,-1.655071E-2,2.8073965E-2,4.7707325E-3,5.08993E-3,-1.1201418E-3,-2.748092E-3,3.8291682E-3],"split_indices":[13,25,8,1,1,6,18,0,0,0,0,0,0,0,0],"split_type":[0,0,0,0,0,0,0,0,0,0,0,0,0,0,0],"sum_hessian":[1.0605093E4,1.5952383E3,9.0098545E3,8.7177246E1,1.508061E3,2.730781E3,6.279073E3,1.1512809E1,7.566444E1,4.7208595E1,1.4608524E3,1.372109E3,1.358672E3,5.6203794E3,6.5869385E2],"tree_param":{"num_deleted":"0","num_feature":"29","num_nodes":"15","size_leaf_vector":"1"}},{"base_weights":[3.13441E-5,3.1138476E-2,-4.7517784E-2,7.736138E-2,-2.6369505E-3,-5.5461675E-2,1.5473953E-1,1.588632E-2,3.1601393E-3,-3.890626E-2,1.1139355E-4,-8.565619E-4,-5.145145E-3,1.0970959E-2,-2.4805814E-2],"categories":[],"categories_nodes":[],"categories_segments":[],"categories_sizes":[],"default_left":[0,0,0,0,0,0,0,0,0,0,0,0,0,0,0],"id":37,"left_children":[1,3,5,7,9,11,13,-1,-1,-1,-1,-1,-1,-1,-1],"loss_changes":[1.568624E1,1.0009042E1,6.7473507E0,9.191673E0,1.3980129E1,7.338154E0,6.7925425E0,0E0,0E0,0E0,0E0,0E0,0E0,0E0,0E0],"parents":[2147483647,0,0,1,1,2,2,3,3,4,4,5,5,6,6],"right_children":[2,4,6,8,10,12,14,-1,-1,-1,-1,-1,-1,-1,-1],"split_conditions":[3.9157295E-1,-1.6677384E-1,2.4703789E0,-7.6373196E-1,-2.1729732E0,2.1156938E-1,2.4887562E0,1.588632E-2,3.1601393E-3,-3.890626E-2,1.1139355E-4,-8.565619E-4,-5.145145E-3,1.0970959E-2,-2.4805814E-2],"split_indices":[13,8,7,12,15,14,0,0,0,0,0,0,0,0,0],"split_type":[0,0,0,0,0,0,0,0,0,0,0,0,0,0,0],"sum_hessian":[1.0603137E4,6.409996E3,4.1931406E3,2.7057659E3,3.7042302E3,4.0353728E3,1.5776819E2,1.4932323E2,2.5564429E3,2.2101736E1,3.6821287E3,2.2327607E3,1.8026119E3,1.4410994E2,1.3658239E1],"tree_param":{"num_deleted":"0","num_feature":"29","num_nodes":"15","size_leaf_vector":"1"}},{"base_weights":[2.6131911E-5,1.1247476E-1,-1.2132626E-2,8.4501815E-1,1.017928E-1,2.9609183E-2,-4.5730885E-2,6.0454257E-2,-8.133036E-3,8.3667645E-4,9.212842E-3,2.1686326E-3,-7.0193843E-3,-3.993833E-3,9.85247E-4],"categories":[],"categories_nodes":[],"categories_segments":[],"categories_sizes":[],"default_left":[0,0,0,0,0,0,0,0,0,0,0,0,0,0,0],"id":38,"left_children":[1,3,5,7,9,11,13,-1,-1,-1,-1,-1,-1,-1,-1],"loss_changes":[1.4496669E1,8.009687E0,1.3420451E1,5.6015434E0,7.1575813E0,9.991284E0,1.1847399E1,0E0,0E0,0E0,0E0,0E0,0E0,0E0,0E0],"parents":[2147483647,0,0,1,1,2,2,3,3,4,4,5,5,6,6],"right_children":[2,4,6,8,10,12,14,-1,-1,-1,-1,-1,-1,-1,-1],"split_conditions":[-1.3853995E0,-3.138091E0,-6.661672E-2,-1.0471925E0,-9.800997E-2,1.4271868E0,5.982432E-1,6.0454257E-2,-8.133036E-3,8.3667645E-4,9.212842E-3,2.1686326E-3,-7.0193843E-3,-3.993833E-3,9.85247E-4],"split_indices":[13,1,15,7,16,13,22,0,0,0,0,0,0,0,0],"split_type":[0,0,0,0,0,0,0,0,0,0,0,0,0,0,0],"sum_hessian":[1.0600906E4,1.0335947E3,9.567312E3,1.3732691E1,1.01986206E3,4.2666406E3,5.300671E3,9.941154E0,3.7915373E0,5.0262344E2,5.172386E2,3.9477627E3,3.1887805E2,3.4829658E3,1.8177051E3],"tree_param":{"num_deleted":"0","num_feature":"29","num_nodes":"15","size_leaf_vector":"1"}},{"base_weights":[3.054537E-5,2.884002E-2,-4.400653E-2,7.52962E-2,-1.5950694E-3,1.21389E-1,-5.332775E-2,2.6469473E-3,1.1832207E-2,-8.994723E-4,4.896633E-3,-7.885336E-3,1.3552357E-2,-1.7998843E-2,-2.2901166E-3],"categories":[],"categories_nodes":[],"categories_segments":[],"categories_sizes":[],"default_left":[0,0,0,0,0,0,0,0,0,0,0,0,0,0,0],"id":39,"left_children":[1,3,5,7,9,11,13,-1,-1,-1,-1,-1,-1,-1,-1],"loss_changes":[1.344952E1,9.061211E0,6.4700956E0,9.137987E0,6.3211884E0,9.398169E0,9.143967E0,0E0,0E0,0E0,0E0,0E0,0E0,0E0,0E0],"parents":[2147483647,0,0,1,1,2,2,3,3,4,4,5,5,6,6],"right_children":[2,4,6,8,10,12,14,-1,-1,-1,-1,-1,-1,-1,-1],"split_conditions":[3.9157295E-1,-2.589745E-1,-1.385396E0,6.9848245E-1,1.1697007E0,-1.6620648E0,-1.3426858E0,2.6469473E-3,1.1832207E-2,-8.994723E-4,4.896633E-3,-7.885336E-3,1.3552357E-2,-1.7998843E-2,-2.2901166E-3],"split_indices":[13,23,2,22,26,0,24,0,0,0,0,0,0,0,0],"split_type":[0,0,0,0,0,0,0,0,0,0,0,0,0,0,0],"sum_hessian":[1.0599149E4,6.407589E3,4.1915605E3,2.5356675E3,3.8719216E3,2.2298033E2,3.9685803E3,2.2282385E3,3.074288E2,3.3250354E3,5.468862E2,7.781334E1,1.4516698E2,9.393753E1,3.8746428E3],"tree_param":{"num_deleted":"0","num_feature":"29","num_nodes":"15","size_leaf_vector":"1"}},{"base_weights":[2.9604944E-5,2.3197992E-2,-5.1763244E-2,2.0703595E-2,6.6481537E-1,-1.07579865E-1,3.934721E-3,1.0910699E-3,-5.986018E-2,3.9467704E-2,-3.291069E-2,-8.17228E-3,6.901259E-4,-3.7850134E-2,5.0559157E-4],"categories":[],"categories_nodes":[],"categories_segments":[],"categories_sizes":[],"default_left":[0,0,0,0,0,0,0,0,0,0,0,0,0,0,0],"id":40,"left_children":[1,3,5,7,9,11,13,-1,-1,-1,-1,-1,-1,-1,-1],"loss_changes":[1.2718823E1,1.1707009E1,1.0185008E1,9.958901E0,5.187232E0,1.1098057E1,7.719567E0,0E0,0E0,0E0,0E0,0E0,0E0,0E0,0E0],"parents":[2147483647,0,0,1,1,2,2,3,3,4,4,5,5,6,6],"right_children":[2,4,6,8,10,12,14,-1,-1,-1,-1,-1,-1,-1,-1],"split_conditions":[2.5046858E-1,1.1682861E0,-5.558727E-2,3.086785E0,2.5748477E0,7.203201E-1,-7.664297E-1,1.0910699E-3,-5.986018E-2,3.9467704E-2,-3.291069E-2,-8.17228E-3,6.901259E-4,-3.7850134E-2,5.0559157E-4],"split_indices":[14,19,12,16,23,8,5,0,0,0,0,0,0,0,0],"split_type":[0,0,0,0,0,0,0,0,0,0,0,0,0,0,0],"sum_hessian":[1.0597401E4,7.3224272E3,3.274974E3,7.2950986E3,2.732868E1,1.6352794E3,1.6396946E3,7.2893906E3,5.708174E0,2.5346182E1,1.9824991E0,1.1196285E3,5.1565094E2,1.2224706E1,1.6274698E3],"tree_param":{"num_deleted":"0","num_feature":"29","num_nodes":"15","size_leaf_vector":"1"}},{"base_weights":[1.8848863E-5,1.0482455E-1,-1.1304294E-2,8.119457E-1,9.460989E-2,2.7332623E-2,-4.2401325E-2,5.8370978E-2,-7.8511555E-3,-3.5112392E-2,5.146544E-3,3.362373E-3,-1.5407044E-3,-3.0316657E-3,3.3468974E-3],"categories":[],"categories_nodes":[],"categories_segments":[],"categories_sizes":[],"default_left":[0,0,0,0,0,0,0,0,0,0,0,0,0,0,0],"id":41,"left_children":[1,3,5,7,9,11,13,-1,-1,-1,-1,-1,-1,-1,-1],"loss_changes":[1.2577029E1,7.38717E0,1.1493074E1,5.206298E0,6.8340797E0,9.902802E0,1.0569107E1,0E0,0E0,0E0,0E0,0E0,0E0,0E0,0E0],"parents":[2147483647,0,0,1,1,2,2,3,3,4,4,5,5,6,6],"right_children":[2,4,6,8,10,12,14,-1,-1,-1,-1,-1,-1,-1,-1],"split_conditions":[-1.3853995E0,-3.138091E0,-6.661672E-2,-1.0471925E0,-2.7993996E0,-1.3833417E-1,1.2962028E0,5.8370978E-2,-7.8511555E-3,-3.5112392E-2,5.146544E-3,3.362373E-3,-1.5407044E-3,-3.0316657E-3,3.3468974E-3],"split_indices":[13,1,15,7,15,6,18,0,0,0,0,0,0,0,0],"split_type":[0,0,0,0,0,0,0,0,0,0,0,0,0,0,0],"sum_hessian":[1.0596057E4,1.0323633E3,9.563693E3,1.3582921E1,1.0187804E3,4.2648706E3,5.298823E3,9.787496E0,3.795426E0,9.666585E0,1.0091138E3,2.5288105E3,1.7360598E3,4.541918E3,7.569053E2],"tree_param":{"num_deleted":"0","num_feature":"29","num_nodes":"15","size_leaf_vector":"1"}},{"base_weights":[2.0707606E-5,2.0865655E-2,-5.329888E-2,3.3715345E-2,-7.444758E-2,2.7867777E-3,-9.544159E-2,1.4375256E-3,2.2784492E-2,-6.453379E-2,-3.2807637E-3,-2.0972237E-2,6.7147467E-4,-1.4495601E-2,-3.0698366E-3],"categories":[],"categories_nodes":[],"categories_segments":[],"categories_sizes":[],"default_left":[0,0,0,0,0,0,0,0,0,0,0,0,0,0,0],"id":42,"left_children":[1,3,5,7,9,11,13,-1,-1,-1,-1,-1,-1,-1,-1],"loss_changes":[1.1777657E1,9.333068E0,7.0399E0,1.4052941E1,9.640869E0,5.752016E0,1.1241283E1,0E0,0E0,0E0,0E0,0E0,0E0,0E0,0E0],"parents":[2147483647,0,0,1,1,2,2,3,3,4,4,5,5,6,6],"right_children":[2,4,6,8,10,12,14,-1,-1,-1,-1,-1,-1,-1,-1],"split_conditions":[7.700741E-1,1.1219646E0,-2.5254125E-2,2.0312014E0,-1.6830088E0,-2.202547E0,-8.378668E-1,1.4375256E-3,2.2784492E-2,-6.453379E-2,-3.2807637E-3,-2.0972237E-2,6.7147467E-4,-1.4495601E-2,-3.0698366E-3],"split_indices":[13,3,15,26,24,19,27,0,0,0,0,0,0,0,0],"split_type":[0,0,0,0,0,0,0,0,0,0,0,0,0,0,0],"sum_hessian":[1.0594715E4,7.6173647E3,2.9773506E3,6.7129956E3,9.043688E2,1.2777671E3,1.6995835E3,6.635987E3,7.7009E1,5.473865E0,8.988949E2,3.0471E1,1.2472961E3,2.5208908E2,1.4474945E3],"tree_param":{"num_deleted":"0","num_feature":"29","num_nodes":"15","size_leaf_vector":"1"}},{"base_weights":[1.1653862E-5,7.694632E-2,-1.3592926E-2,-8.0889666E-1,8.192065E-2,3.22096E-1,-1.6815938E-2,2.6026148E-2,-5.619058E-2,2.254798E-2,3.4181674E-3,-4.909936E-3,2.3153147E-2,-1.6779406E-3,2.5749477E-3],"categories":[],"categories_nodes":[],"categories_segments":[],"categories_sizes":[],"default_left":[0,0,0,0,0,0,0,0,0,0,0,0,0,0,0],"id":43,"left_children":[1,3,5,7,9,11,13,-1,-1,-1,-1,-1,-1,-1,-1],"loss_changes":[1.1089393E1,7.081481E0,9.745996E0,4.345252E0,7.894397E0,5.12103E0,1.02023735E1,0E0,0E0,0E0,0E0,0E0,0E0,0E0,0E0],"parents":[2147483647,0,0,1,1,2,2,3,3,4,4,5,5,6,6],"right_children":[2,4,6,8,10,12,14,-1,-1,-1,-1,-1,-1,-1,-1],"split_conditions":[-1.193902E0,-3.546846E0,-1.8361218E0,-2.78868E0,-2.2533765E0,-1.7410377E0,7.4801654E-1,2.6026148E-2,-5.619058E-2,2.254798E-2,3.4181674E-3,-4.909936E-3,2.3153147E-2,-1.6779406E-3,2.5749477E-3],"split_indices":[13,18,4,26,23,5,22,0,0,0,0,0,0,0,0],"split_type":[0,0,0,0,0,0,0,0,0,0,0,0,0,0,0],"sum_hessian":[1.0592991E4,1.5910212E3,9.00197E3,7.9818344E0,1.5830394E3,8.4666794E1,8.917304E3,1.4036016E0,6.578233E0,5.495179E1,1.5280876E3,2.1341183E1,6.3325615E1,7.162419E3,1.7548843E3],"tree_param":{"num_deleted":"0","num_feature":"29","num_nodes":"15","size_leaf_vector":"1"}},{"base_weights":[1.3214213E-5,4.6670996E-2,-2.1837164E-2,8.971329E-2,-1.4815901E-2,-4.5822212E-1,-1.906752E-2,4.946738E-3,-1.2299403E-2,2.788166E-3,-5.26593E-3,-3.832745E-2,1.8697845E-2,7.2043943E-3,-1.4539104E-3],"categories":[],"categories_nodes":[],"categories_segments":[],"categories_sizes":[],"default_left":[0,0,0,0,0,0,0,0,0,0,0,0,0,0,0],"id":44,"left_children":[1,3,5,7,9,11,13,-1,-1,-1,-1,-1,-1,-1,-1],"loss_changes":[1.0800412E1,8.943684E0,8.71159E0,6.1775684E0,8.898661E0,1.195097E1,1.1715893E1,0E0,0E0,0E0,0E0,0E0,0E0,0E0,0E0],"parents":[2147483647,0,0,1,1,2,2,3,3,4,4,5,5,6,6],"right_children":[2,4,6,8,10,12,14,-1,-1,-1,-1,-1,-1,-1,-1],"split_conditions":[-2.46174E-1,1.0343187E-2,-1.9355708E0,1.5920953E0,-2.4769747E-1,5.0992584E-1,-8.3169305E-1,4.946738E-3,-1.2299403E-2,2.788166E-3,-5.26593E-3,-3.832745E-2,1.8697845E-2,7.2043943E-3,-1.4539104E-3],"split_indices":[8,6,1,13,13,7,5,0,0,0,0,0,0,0,0],"split_type":[0,0,0,0,0,0,0,0,0,0,0,0,0,0,0],"sum_hessian":[1.0591936E4,3.3778892E3,7.214046E3,1.9866958E3,1.3911934E3,4.4460163E1,7.169586E3,1.9342681E3,5.2427654E1,7.818475E2,6.093459E2,3.249825E1,1.1961914E1,4.1369763E2,6.755888E3],"tree_param":{"num_deleted":"0","num_feature":"29","num_nodes":"15","size_leaf_vector":"1"}},{"base_weights":[1.0771759E-5,1.9220453E-2,-4.912872E-2,2.6643896E-3,8.880531E-2,-5.8435384E-2,1.9439761E-1,4.7592135E-4,-9.671789E-3,1.5060419E-2,2.4483774E-3,-6.094264E-4,-5.8356905E-3,1.50288185E-2,-1.7106809E-2],"categories":[],"categories_nodes":[],"categories_segments":[],"categories_sizes":[],"default_left":[0,0,0,0,0,0,0,0,0,0,0,0,0,0,0],"id":45,"left_children":[1,3,5,7,9,11,13,-1,-1,-1,-1,-1,-1,-1,-1],"loss_changes":[9.998607E0,8.77296E0,6.758437E0,8.271518E0,1.2369801E1,7.728841E0,6.358679E0,0E0,0E0,0E0,0E0,0E0,0E0,0E0,0E0],"parents":[2147483647,0,0,1,1,2,2,3,3,4,4,5,5,6,6],"right_children":[2,4,6,8,10,12,14,-1,-1,-1,-1,-1,-1,-1,-1],"split_conditions":[7.700741E-1,6.843787E-1,2.783726E0,1.2555995E0,-5.305604E-1,2.7349502E-1,2.2520409E0,4.7592135E-4,-9.671789E-3,1.5060419E-2,2.4483774E-3,-6.094264E-4,-5.8356905E-3,1.50288185E-2,-1.7106809E-2],"split_indices":[13,22,7,2,5,0,0,0,0,0,0,0,0,0,0],"split_type":[0,0,0,0,0,0,0,0,0,0,0,0,0,0,0],"sum_hessian":[1.0590261E4,7.6142827E3,2.9759778E3,6.151676E3,1.4626069E3,2.8671655E3,1.0881232E2,5.9448447E3,2.0683107E2,2.2996124E2,1.2326456E3,1.599272E3,1.2678936E3,9.12032E1,1.7609114E1],"tree_param":{"num_deleted":"0","num_feature":"29","num_nodes":"15","size_leaf_vector":"1"}},{"base_weights":[1.0247994E-5,9.231825E-2,-9.946724E-3,7.695903E-1,8.2674116E-2,2.9839793E-1,-1.3132999E-2,5.595248E-2,-8.15684E-3,2.8020711E-5,8.116416E-3,9.23289E-3,3.8605403E-2,-1.4809362E-3,2.0193632E-3],"categories":[],"categories_nodes":[],"categories_segments":[],"categories_sizes":[],"default_left":[0,0,0,0,0,0,0,0,0,0,0,0,0,0,0],"id":46,"left_children":[1,3,5,7,9,11,13,-1,-1,-1,-1,-1,-1,-1,-1],"loss_changes":[9.734008E0,6.6715975E0,9.395897E0,4.862179E0,6.657044E0,5.127696E0,8.350361E0,0E0,0E0,0E0,0E0,0E0,0E0,0E0,0E0],"parents":[2147483647,0,0,1,1,2,2,3,3,4,4,5,5,6,6],"right_children":[2,4,6,8,10,12,14,-1,-1,-1,-1,-1,-1,-1,-1],"split_conditions":[-1.3853995E0,-3.138091E0,-1.8361218E0,-1.0471925E0,-9.800997E-2,-4.7292477E-1,5.982432E-1,5.595248E-2,-8.15684E-3,2.8020711E-5,8.116416E-3,9.23289E-3,3.8605403E-2,-1.4809362E-3,2.0193632E-3],"split_indices":[13,1,4,7,16,21,22,0,0,0,0,0,0,0,0],"split_type":[0,0,0,0,0,0,0,0,0,0,0,0,0,0,0],"sum_hessian":[1.0588709E4,1.0301584E3,9.558551E3,1.3356862E1,1.0168016E3,9.681527E1,9.461735E3,9.571139E0,3.7857223E0,5.0116693E2,5.1563464E2,7.919095E1,1.7624325E1,7.2339307E3,2.227805E3],"tree_param":{"num_deleted":"0","num_feature":"29","num_nodes":"15","size_leaf_vector":"1"}},{"base_weights":[2.0427784E-5,1.7497648E-2,-5.1195484E-2,4.8044354E-2,-1.5560869E-2,-3.2462153E-1,-3.5927862E-2,1.4560147E-3,1.2770145E-2,-2.7730202E-3,3.369156E-3,-1.8291516E-2,5.1697154E-2,-9.963587E-3,-8.702666E-4],"categories":[],"categories_nodes":[],"categories_segments":[],"categories_sizes":[],"default_left":[0,0,0,0,0,0,0,0,0,0,0,0,0,0,0],"id":47,"left_children":[1,3,5,7,9,11,13,-1,-1,-1,-1,-1,-1,-1,-1],"loss_changes":[9.479133E0,7.9739103E0,1.1235983E1,1.6096634E1,1.2555182E1,8.348552E0,7.720627E0,0E0,0E0,0E0,0E0,0E0,0E0,0E0,0E0],"parents":[2147483647,0,0,1,1,2,2,3,3,4,4,5,5,6,6],"right_children":[2,4,6,8,10,12,14,-1,-1,-1,-1,-1,-1,-1,-1],"split_conditions":[3.5584572E-1,-2.3400668E-2,-7.396638E-1,9.2664644E-2,6.913938E-1,3.1327996E0,-3.3074555E-1,1.4560147E-3,1.2770145E-2,-2.7730202E-3,3.369156E-3,-1.8291516E-2,5.1697154E-2,-9.963587E-3,-8.702666E-4],"split_indices":[14,24,6,17,25,15,26,0,0,0,0,0,0,0,0],"split_type":[0,0,0,0,0,0,0,0,0,0,0,0,0,0,0],"sum_hessian":[1.0587887E4,7.894559E3,2.6933274E3,4.1029243E3,3.7916345E3,1.4136559E2,2.551962E3,3.760841E3,3.420833E2,2.5603367E3,1.2312979E3,1.3791304E2,3.4525356E0,2.589156E2,2.2930461E3],"tree_param":{"num_deleted":"0","num_feature":"29","num_nodes":"15","size_leaf_vector":"1"}},{"base_weights":[2.2842782E-5,1.6110934E-2,-5.2268133E-2,1.1775875E-2,2.6667988E-1,-7.616692E-2,1.0215728E-1,1.2699682E-3,-3.7435794E-3,1.6470646E-2,-2.1133821E-2,7.878693E-5,-7.0746564E-3,-1.4876939E-2,1.1646208E-2],"categories":[],"categories_nodes":[],"categories_segments":[],"categories_sizes":[],"default_left":[0,0,0,0,0,0,0,0,0,0,0,0,0,0,0],"id":48,"left_children":[1,3,5,7,9,11,13,-1,-1,-1,-1,-1,-1,-1,-1],"loss_changes":[8.907911E0,8.792558E0,9.202122E0,9.399136E0,6.09258E0,1.0959874E1,1.7542582E1,0E0,0E0,0E0,0E0,0E0,0E0,0E0,0E0],"parents":[2147483647,0,0,1,1,2,2,3,3,4,4,5,5,6,6],"right_children":[2,4,6,8,10,12,14,-1,-1,-1,-1,-1,-1,-1,-1],"split_conditions":[8.9688635E-1,1.7880461E0,1.0536199E0,1.1528119E0,2.7503235E0,7.543797E-1,-6.379024E-1,1.2699682E-3,-3.7435794E-3,1.6470646E-2,-2.1133821E-2,7.878693E-5,-7.0746564E-3,-1.4876939E-2,1.1646208E-2],"split_indices":[3,2,6,13,12,0,27,0,0,0,0,0,0,0,0],"split_type":[0,0,0,0,0,0,0,0,0,0,0,0,0,0,0],"sum_hessian":[1.0586747E4,8.0964473E3,2.4902998E3,7.959783E3,1.3666412E2,2.1569917E3,3.3330798E2,6.878924E3,1.0808591E3,1.2574332E2,1.0920796E1,9.853426E2,1.1716492E3,8.185091E1,2.5145708E2],"tree_param":{"num_deleted":"0","num_feature":"29","num_nodes":"15","size_leaf_vector":"1"}},{"base_weights":[1.9678251E-5,8.641826E-2,-9.293048E-3,2.0098405E-1,3.0516898E-2,2.8195655E-1,-1.2296087E-2,6.503322E-3,2.908147E-2,-2.651679E-3,1.0753663E-2,8.661137E-3,3.6835536E-2,-1.0969535E-2,-3.994215E-4],"categories":[],"categories_nodes":[],"categories_segments":[],"categories_sizes":[],"default_left":[0,0,0,0,0,0,0,0,0,0,0,0,0,0,0],"id":49,"left_children":[1,3,5,7,9,11,13,-1,-1,-1,-1,-1,-1,-1,-1],"loss_changes":[8.518677E0,6.5913696E0,8.362548E0,9.038755E0,1.0705239E1,4.6974173E0,8.438026E0,0E0,0E0,0E0,0E0,0E0,0E0,0E0,0E0],"parents":[2147483647,0,0,1,1,2,2,3,3,4,4,5,5,6,6],"right_children":[2,4,6,8,10,12,14,-1,-1,-1,-1,-1,-1,-1,-1],"split_conditions":[-1.3853995E0,-3.8037172E-1,-1.8361218E0,1.1682602E0,1.4125682E-1,-4.7292477E-1,-2.1863272E0,6.503322E-3,2.908147E-2,-2.651679E-3,1.0753663E-2,8.661137E-3,3.6835536E-2,-1.0969535E-2,-3.994215E-4],"split_indices":[13,8,4,27,19,21,1,0,0,0,0,0,0,0,0],"split_type":[0,0,0,0,0,0,0,0,0,0,0,0,0,0,0],"sum_hessian":[1.0585387E4,1.0291543E3,9.556232E3,3.366399E2,6.925144E2,9.657955E1,9.459653E3,2.8490186E2,5.173805E1,4.771958E2,2.1531859E2,7.9057465E1,1.7522087E1,1.9173804E2,9.267915E3],"tree_param":{"num_deleted":"0","num_feature":"29","num_nodes":"15","size_leaf_vector":"1"}},{"base_weights":[2.7052107E-5,2.8868232E-2,-2.6968673E-2,1.0359316E-2,1.5414119E-1,-1.6782708E-1,-1.5453262E-2,2.907683E-4,2.1373117E-2,1.385653E-2,3.138758E-3,-3.279913E-3,-2.3878582E-2,-1.5954984E-3,6.030256E-3],"categories":[],"categories_nodes":[],"categories_segments":[],"categories_sizes":[],"default_left":[0,0,0,0,0,0,0,0,0,0,0,0,0,0,0],"id":50,"left_children":[1,3,5,7,9,11,13,-1,-1,-1,-1,-1,-1,-1,-1],"loss_changes":[8.242594E0,1.1866135E1,8.867125E0,8.45155E0,7.385665E0,1.3051062E1,1.1324797E1,0E0,0E0,0E0,0E0,0E0,0E0,0E0,0E0],"parents":[2147483647,0,0,1,1,2,2,3,3,4,4,5,5,6,6],"right_children":[2,4,6,8,10,12,14,-1,-1,-1,-1,-1,-1,-1,-1],"split_conditions":[-5.4566406E-2,6.843787E-1,-3.3953896E-1,4.6980533E-1,-1.0754996E-1,2.489265E-1,1.2962028E0,2.907683E-4,2.1373117E-2,1.385653E-2,3.138758E-3,-3.279913E-3,-2.3878582E-2,-1.5954984E-3,6.030256E-3],"split_indices":[23,22,26,20,2,1,18,0,0,0,0,0,0,0,0],"split_type":[0,0,0,0,0,0,0,0,0,0,0,0,0,0,0],"sum_hessian":[1.0584585E4,5.117344E3,5.4672407E3,4.4595366E3,6.57808E2,4.1215222E2,5.0550884E3,4.4124805E3,4.7055943E1,2.7951486E2,3.7829312E2,3.107901E2,1.01362114E2,4.5103164E3,5.4477203E2],"tree_param":{"num_deleted":"0","num_feature":"29","num_nodes":"15","size_leaf_vector":"1"}},{"base_weights":[2.7370399E-5,1.7008213E-2,-4.341875E-2,2.807782E-2,-6.508304E-2,-5.2142937E-2,1.8450904E-1,1.1661351E-3,2.162273E-2,-6.174006E-2,-2.8314844E-3,-4.582731E-4,-5.318135E-3,1.4359524E-2,-1.6750393E-2],"categories":[],"categories_nodes":[],"categories_segments":[],"categories_sizes":[],"default_left":[0,0,0,0,0,0,0,0,0,0,0,0,0,0,0],"id":51,"left_children":[1,3,5,7,9,11,13,-1,-1,-1,-1,-1,-1,-1,-1],"loss_changes":[7.809442E0,6.9178925E0,5.9246974E0,1.2886839E1,8.875146E0,6.67696E0,5.9578123E0,0E0,0E0,0E0,0E0,0E0,0E0,0E0,0E0],"parents":[2147483647,0,0,1,1,2,2,3,3,4,4,5,5,6,6],"right_children":[2,4,6,8,10,12,14,-1,-1,-1,-1,-1,-1,-1,-1],"split_conditions":[7.700741E-1,1.1219646E0,2.783726E0,2.0312014E0,-1.6830088E0,2.7349502E-1,2.2520409E0,1.1661351E-3,2.162273E-2,-6.174006E-2,-2.8314844E-3,-4.582731E-4,-5.318135E-3,1.4359524E-2,-1.6750393E-2],"split_indices":[13,3,7,26,24,0,0,0,0,0,0,0,0,0,0],"split_type":[0,0,0,0,0,0,0,0,0,0,0,0,0,0,0],"sum_hessian":[1.0583459E4,7.609793E3,2.973666E3,6.706158E3,9.036349E2,2.8647847E3,1.0888154E2,6.6292617E3,7.689667E1,5.442673E0,8.981922E2,1.5987217E3,1.2660629E3,9.128621E1,1.759533E1],"tree_param":{"num_deleted":"0","num_feature":"29","num_nodes":"15","size_leaf_vector":"1"}},{"base_weights":[2.0992708E-5,3.885414E-2,-1.8153511E-2,8.7535985E-2,-1.15012415E-2,-4.3048567E-1,-1.5533205E-2,8.123087E-3,1.5133517E-3,-9.4419747E-4,2.3266101E-2,-3.6309373E-2,1.8380757E-2,6.660192E-3,-1.232806E-3],"categories":[],"categories_nodes":[],"categories_segments":[],"categories_sizes":[],"default_left":[0,0,0,0,0,0,0,0,0,0,0,0,0,0,0],"id":52,"left_children":[1,3,5,7,9,11,13,-1,-1,-1,-1,-1,-1,-1,-1],"loss_changes":[7.469797E0,8.272539E0,7.782861E0,7.357155E0,5.8505797E0,1.100243E1,9.725779E0,0E0,0E0,0E0,0E0,0E0,0E0,0E0,0E0],"parents":[2147483647,0,0,1,1,2,2,3,3,4,4,5,5,6,6],"right_children":[2,4,6,8,10,12,14,-1,-1,-1,-1,-1,-1,-1,-1],"split_conditions":[-2.46174E-1,-1.3833417E-1,-1.9355708E0,-1.0511076E-1,2.978499E-1,5.0992584E-1,-8.3169305E-1,8.123087E-3,1.5133517E-3,-9.4419747E-4,2.3266101E-2,-3.6309373E-2,1.8380757E-2,6.660192E-3,-1.232806E-3],"split_indices":[8,6,1,27,19,7,5,0,0,0,0,0,0,0,0],"split_type":[0,0,0,0,0,0,0,0,0,0,0,0,0,0,0],"sum_hessian":[1.0581851E4,3.3732175E3,7.2086333E3,1.7147338E3,1.6584838E3,4.4489326E1,7.164144E3,7.420556E2,9.7267816E2,1.6341426E3,2.4341215E1,3.25277E1,1.1961627E1,4.1323837E2,6.750906E3],"tree_param":{"num_deleted":"0","num_feature":"29","num_nodes":"15","size_leaf_vector":"1"}},{"base_weights":[2.2155875E-5,1.206354E-1,-5.766767E-3,-4.573404E-1,1.4493616E-1,-2.279095E-1,-1.7104947E-3,2.5857282E-3,-6.769446E-2,6.5223887E-3,5.024595E-2,3.841692E-4,-1.981545E-2,5.346265E-2,-1.2677109E-4],"categories":[],"categories_nodes":[],"categories_segments":[],"categories_sizes":[],"default_left":[0,0,0,0,0,0,0,0,0,0,0,0,0,0,0],"id":53,"left_children":[1,3,5,7,9,11,13,-1,-1,-1,-1,-1,-1,-1,-1],"loss_changes":[7.389067E0,6.8735037E0,9.098675E0,9.1047325E0,5.673506E0,7.1869173E0,8.764912E0,0E0,0E0,0E0,0E0,0E0,0E0,0E0,0E0],"parents":[2147483647,0,0,1,1,2,2,3,3,4,4,5,5,6,6],"right_children":[2,4,6,8,10,12,14,-1,-1,-1,-1,-1,-1,-1,-1],"split_conditions":[-1.6276541E0,-2.5330126E0,-2.1863272E0,-5.210018E-1,1.372683E0,-2.78868E0,-2.6343982E0,2.5857282E-3,-6.769446E-2,6.5223887E-3,5.024595E-2,3.841692E-4,-1.981545E-2,5.346265E-2,-1.2677109E-4],"split_indices":[3,5,1,17,22,26,23,0,0,0,0,0,0,0,0],"split_type":[0,0,0,0,0,0,0,0,0,0,0,0,0,0,0],"sum_hessian":[1.0580712E4,4.8366324E2,1.0097049E4,1.8795929E1,4.648673E2,1.8007387E2,9.916975E3,1.2589823E1,6.206106E0,4.5829794E2,6.569393E0,7.5459496E1,1.04614365E2,6.635968E0,9.910339E3],"tree_param":{"num_deleted":"0","num_feature":"29","num_nodes":"15","size_leaf_vector":"1"}},{"base_weights":[2.4325884E-5,7.9636306E-2,-8.548329E-3,7.289195E-1,7.054573E-2,2.6325074E-1,-1.1343061E-2,5.3603984E-2,-8.238532E-3,-3.4654737E-2,3.9285286E-3,-9.525867E-3,1.8265927E-2,-1.3371103E-3,1.9332751E-3],"categories":[],"categories_nodes":[],"categories_segments":[],"categories_sizes":[],"default_left":[0,0,0,0,0,0,0,0,0,0,0,0,0,0,0],"id":54,"left_children":[1,3,5,7,9,11,13,-1,-1,-1,-1,-1,-1,-1,-1],"loss_changes":[7.222214E0,6.0204763E0,7.2598734E0,4.499925E0,6.2783155E0,4.5748477E0,7.283936E0,0E0,0E0,0E0,0E0,0E0,0E0,0E0,0E0],"parents":[2147483647,0,0,1,1,2,2,3,3,4,4,5,5,6,6],"right_children":[2,4,6,8,10,12,14,-1,-1,-1,-1,-1,-1,-1,-1],"split_conditions":[-1.3853995E0,-3.138091E0,-1.8361218E0,-1.0471925E0,-2.7993996E0,-2.3756275E0,5.982432E-1,5.3603984E-2,-8.238532E-3,-3.4654737E-2,3.9285286E-3,-9.525867E-3,1.8265927E-2,-1.3371103E-3,1.9332751E-3],"split_indices":[13,1,4,7,15,14,22,0,0,0,0,0,0,0,0],"split_type":[0,0,0,0,0,0,0,0,0,0,0,0,0,0,0],"sum_hessian":[1.0580218E4,1.0277242E3,9.552494E3,1.3097082E1,1.0146272E3,9.627386E1,9.45622E3,9.31911E0,3.7779725E0,9.663713E0,1.0049635E3,1.751958E1,7.875428E1,7.230268E3,2.2259521E3],"tree_param":{"num_deleted":"0","num_feature":"29","num_nodes":"15","size_leaf_vector":"1"}},{"base_weights":[2.620405E-5,1.4956047E-2,-4.3731865E-2,1.2910974E-2,4.790211E-1,-3.0316225E-1,-2.9269174E-2,2.2022314E-3,-1.054112E-3,-5.491891E-2,3.1717014E-2,2.6546348E-2,-1.8576318E-2,-2.6000177E-3,4.415467E-3],"categories":[],"categories_nodes":[],"categories_segments":[],"categories_sizes":[],"default_left":[0,0,0,0,0,0,0,0,0,0,0,0,0,0,0],"id":55,"left_children":[1,3,5,7,9,11,13,-1,-1,-1,-1,-1,-1,-1,-1],"loss_changes":[6.912817E0,7.481345E0,1.0091054E1,8.31513E0,9.170778E0,8.296234E0,6.8221145E0,0E0,0E0,0E0,0E0,0E0,0E0,0E0,0E0],"parents":[2147483647,0,0,1,1,2,2,3,3,4,4,5,5,6,6],"right_children":[2,4,6,8,10,12,14,-1,-1,-1,-1,-1,-1,-1,-1],"split_conditions":[3.5584572E-1,1.2071018E0,-7.396638E-1,-2.3400668E-2,1.2276036E0,-2.0259254E0,1.0536199E0,2.2022314E-3,-1.054112E-3,-5.491891E-2,3.1717014E-2,2.6546348E-2,-1.8576318E-2,-2.6000177E-3,4.415467E-3],"split_indices":[14,19,6,24,2,17,6,0,0,0,0,0,0,0,0],"split_type":[0,0,0,0,0,0,0,0,0,0,0,0,0,0,0],"sum_hessian":[1.0579364E4,7.88853E3,2.6908342E3,7.854942E3,3.3587845E1,1.4103316E2,2.549801E3,4.099762E3,3.7551797E3,2.4665153E0,3.1121328E1,1.0171209E1,1.3086194E2,2.1371821E3,4.1261874E2],"tree_param":{"num_deleted":"0","num_feature":"29","num_nodes":"15","size_leaf_vector":"1"}},{"base_weights":[2.3552802E-5,1.572552E-2,-4.0154092E-2,1.3147262E-3,7.634696E-2,1.4133951E-1,-5.0301902E-2,7.095573E-4,-4.971033E-3,1.3150968E-2,2.07682E-3,-1.0414422E-2,1.5373557E-2,-1.65648E-2,-2.0713545E-3],"categories":[],"categories_nodes":[],"categories_segments":[],"categories_sizes":[],"default_left":[0,0,0,0,0,0,0,0,0,0,0,0,0,0,0],"id":56,"left_children":[1,3,5,7,9,11,13,-1,-1,-1,-1,-1,-1,-1,-1],"loss_changes":[6.674783E0,6.6456475E0,5.482725E0,7.97506E0,9.483214E0,9.223385E0,7.009576E0,0E0,0E0,0E0,0E0,0E0,0E0,0E0,0E0],"parents":[2147483647,0,0,1,1,2,2,3,3,4,4,5,5,6,6],"right_children":[2,4,6,8,10,12,14,-1,-1,-1,-1,-1,-1,-1,-1],"split_conditions":[7.700741E-1,6.843787E-1,-1.385396E0,3.7569204E-1,-5.305604E-1,-1.6620648E0,-1.2699997E0,7.095573E-4,-4.971033E-3,1.3150968E-2,2.07682E-3,-1.0414422E-2,1.5373557E-2,-1.65648E-2,-2.0713545E-3],"split_indices":[13,22,2,22,5,0,24,0,0,0,0,0,0,0,0],"split_type":[0,0,0,0,0,0,0,0,0,0,0,0,0,0,0],"sum_hessian":[1.0578314E4,7.606284E3,2.9720303E3,6.1462363E3,1.460048E3,1.5669061E2,2.8153398E3,5.4504023E3,6.9583417E2,2.2844594E2,1.2316019E3,5.038997E1,1.06300644E2,8.508394E1,2.7302559E3],"tree_param":{"num_deleted":"0","num_feature":"29","num_nodes":"15","size_leaf_vector":"1"}},{"base_weights":[2.2320035E-5,5.8343165E-2,-1.0265334E-2,6.4349316E-2,-6.756095E-1,-1.9262888E-2,7.60755E-2,-1.0758238E-2,4.0377765E-3,-5.6206048E-2,-2.0009072E-3,6.950674E-4,-2.448915E-3,5.6421245E-3,-9.766217E-3],"categories":[],"categories_nodes":[],"categories_segments":[],"categories_sizes":[],"default_left":[0,0,0,0,0,0,0,0,0,0,0,0,0,0,0],"id":57,"left_children":[1,3,5,7,9,11,13,-1,-1,-1,-1,-1,-1,-1,-1],"loss_changes":[6.3473053E0,7.0362897E0,6.987585E0,7.2369585E0,3.6503286E0,8.027399E0,8.492811E0,0E0,0E0,0E0,0E0,0E0,0E0,0E0,0E0],"parents":[2147483647,0,0,1,1,2,2,3,3,4,4,5,5,6,6],"right_children":[2,4,6,8,10,12,14,-1,-1,-1,-1,-1,-1,-1,-1],"split_conditions":[-1.193902E0,2.6101859E0,1.2962028E0,-1.5569166E0,2.5522175E0,-6.661672E-2,1.4015814E0,-1.0758238E-2,4.0377765E-3,-5.6206048E-2,-2.0009072E-3,6.950674E-4,-2.448915E-3,5.6421245E-3,-9.766217E-3],"split_indices":[13,17,18,25,2,15,13,0,0,0,0,0,0,0,0],"split_type":[0,0,0,0,0,0,0,0,0,0,0,0,0,0,0],"sum_hessian":[1.0577115E4,1.5853086E3,8.991807E3,1.5733457E3,1.1962827E1,8.143909E3,8.4789764E2,8.655671E1,1.4867891E3,6.5629754E0,5.3998513E0,3.8488674E3,4.2950415E3,7.472506E2,1.0064705E2],"tree_param":{"num_deleted":"0","num_feature":"29","num_nodes":"15","size_leaf_vector":"1"}},{"base_weights":[1.4780754E-5,1.3248901E-2,-4.3012623E-2,-1.2550069E-2,5.0253782E-2,-1.204122E-1,-2.2359982E-3,5.193596E-4,-3.7534435E-3,1.3811583E-2,1.798694E-3,-2.1896968E-3,-1.0150597E-2,1.7354299E-3,-7.2122435E-3],"categories":[],"categories_nodes":[],"categories_segments":[],"categories_sizes":[],"default_left":[0,0,0,0,0,0,0,0,0,0,0,0,0,0,0],"id":58,"left_children":[1,3,5,7,9,11,13,-1,-1,-1,-1,-1,-1,-1,-1],"loss_changes":[6.023272E0,7.7236524E0,7.852553E0,6.8371205E0,1.0714121E1,5.424343E0,8.56005E0,0E0,0E0,0E0,0E0,0E0,0E0,0E0,0E0],"parents":[2147483647,0,0,1,1,2,2,3,3,4,4,5,5,6,6],"right_children":[2,4,6,8,10,12,14,-1,-1,-1,-1,-1,-1,-1,-1],"split_conditions":[8.9688635E-1,3.158454E-2,4.5235935E-1,-1.8865803E-1,-1.4674617E0,7.543797E-1,7.7042305E-1,5.193596E-4,-3.7534435E-3,1.3811583E-2,1.798694E-3,-2.1896968E-3,-1.0150597E-2,1.7354299E-3,-7.2122435E-3],"split_indices":[3,22,26,17,3,0,27,0,0,0,0,0,0,0,0],"split_type":[0,0,0,0,0,0,0,0,0,0,0,0,0,0,0],"sum_hessian":[1.0575724E4,8.088578E3,2.487146E3,4.7662896E3,3.3222886E3,8.575143E2,1.6296317E3,3.4875796E3,1.2787096E3,1.9637245E2,3.1259163E3,4.4565848E2,4.1185583E2,1.293797E3,3.3583472E2],"tree_param":{"num_deleted":"0","num_feature":"29","num_nodes":"15","size_leaf_vector":"1"}},{"base_weights":[1.3610833E-5,-1.12480605E-2,4.879719E-2,3.7698522E-3,-7.437208E-2,3.4351712E-1,2.979004E-2,2.1393274E-5,1.3992761E-2,-1.1239885E-2,-1.233721E-3,3.0566782E-2,2.1824345E-3,2.582615E-3,-1.0264199E-2],"categories":[],"categories_nodes":[],"categories_segments":[],"categories_sizes":[],"default_left":[0,0,0,0,0,0,0,0,0,0,0,0,0,0,0],"id":59,"left_children":[1,3,5,7,9,11,13,-1,-1,-1,-1,-1,-1,-1,-1],"loss_changes":[5.8106117E0,8.146285E0,1.1101864E1,6.405461E0,1.2340736E1,9.617437E0,9.593169E0,0E0,0E0,0E0,0E0,0E0,0E0,0E0,0E0],"parents":[2147483647,0,0,1,1,2,2,3,3,4,4,5,5,6,6],"right_children":[2,4,6,8,10,12,14,-1,-1,-1,-1,-1,-1,-1,-1],"split_conditions":[7.4801654E-1,3.843312E-1,-1.0931368E0,1.3925174E0,4.267715E-1,-2.0858315E-1,1.4570456E0,2.1393274E-5,1.3992761E-2,-1.1239885E-2,-1.233721E-3,3.0566782E-2,2.1824345E-3,2.582615E-3,-1.0264199E-2],"split_indices":[22,19,4,4,26,2,13,0,0,0,0,0,0,0,0],"split_type":[0,0,0,0,0,0,0,0,0,0,0,0,0,0,0],"sum_hessian":[1.0574584E4,8.591913E3,1.9826705E3,6.9414136E3,1.6504998E3,1.19085686E2,1.8635848E3,6.859383E3,8.203062E1,4.090023E2,1.2414976E3,6.2355793E1,5.672989E1,1.7057296E3,1.578553E2],"tree_param":{"num_deleted":"0","num_feature":"29","num_nodes":"15","size_leaf_vector":"1"}},{"base_weights":[1.5492467E-5,7.727894E-2,-6.895938E-3,8.281184E-3,1.7938603E-1,2.395809E-1,-9.507172E-3,1.9841709E-3,-2.3463352E-2,4.4424497E-4,1.9257208E-2,8.547715E-3,4.0608358E-2,-9.3616415E-3,-2.9012153E-4],"categories":[],"categories_nodes":[],"categories_segments":[],"categories_sizes":[],"default_left":[0,0,0,0,0,0,0,0,0,0,0,0,0,0,0],"id":60,"left_children":[1,3,5,7,9,11,13,-1,-1,-1,-1,-1,-1,-1,-1],"loss_changes":[5.647348E0,6.1160817E0,6.249918E0,7.805028E0,1.2279018E1,3.8613715E0,6.3240337E0,0E0,0E0,0E0,0E0,0E0,0E0,0E0,0E0],"parents":[2147483647,0,0,1,1,2,2,3,3,4,4,5,5,6,6],"right_children":[2,4,6,8,10,12,14,-1,-1,-1,-1,-1,-1,-1,-1],"split_conditions":[-1.444607E0,-2.3142143E-1,-1.8361218E0,8.9677185E-1,-1.12015575E-1,6.151788E-1,-2.1863272E0,1.9841709E-3,-2.3463352E-2,4.4424497E-4,1.9257208E-2,8.547715E-3,4.0608358E-2,-9.3616415E-3,-2.9012153E-4],"split_indices":[13,6,4,5,21,7,1,0,0,0,0,0,0,0,0],"split_type":[0,0,0,0,0,0,0,0,0,0,0,0,0,0,0],"sum_hessian":[1.057354E4,8.6733624E2,9.706204E3,5.1822943E2,3.4910678E2,1.00800476E2,9.605403E3,4.8711502E2,3.1114414E1,1.914802E2,1.576266E2,9.117177E1,9.628713E0,1.9512718E2,9.410276E3],"tree_param":{"num_deleted":"0","num_feature":"29","num_nodes":"15","size_leaf_vector":"1"}},{"base_weights":[1.8912539E-5,1.0312691E-1,-4.9129305E-3,-4.487072E-1,1.2647803E-1,-1.8565509E-1,-4.7659222E-4,1.9084637E-3,-6.466876E-2,5.654109E-3,4.6943545E-2,-2.506644E-2,-4.177725E-3,8.266472E-3,-2.796885E-4],"categories":[],"categories_nodes":[],"categories_segments":[],"categories_sizes":[],"default_left":[0,0,0,0,0,0,0,0,0,0,0,0,0,0,0],"id":61,"left_children":[1,3,5,7,9,11,13,-1,-1,-1,-1,-1,-1,-1,-1],"loss_changes":[5.3774886E0,6.2771673E0,8.092186E0,8.199295E0,4.942434E0,7.750716E0,8.359466E0,0E0,0E0,0E0,0E0,0E0,0E0,0E0,0E0],"parents":[2147483647,0,0,1,1,2,2,3,3,4,4,5,5,6,6],"right_children":[2,4,6,8,10,12,14,-1,-1,-1,-1,-1,-1,-1,-1],"split_conditions":[-1.6276541E0,-2.5330126E0,-1.9355708E0,-5.210018E-1,1.372683E0,6.855475E-1,-1.3756487E0,1.9084637E-3,-6.466876E-2,5.654109E-3,4.6943545E-2,-2.506644E-2,-4.177725E-3,8.266472E-3,-2.796885E-4],"split_indices":[3,5,1,17,22,27,15,0,0,0,0,0,0,0,0],"split_type":[0,0,0,0,0,0,0,0,0,0,0,0,0,0,0],"sum_hessian":[1.0572943E4,4.8172876E2,1.0091215E4,1.8817503E1,4.6291125E2,2.4077753E2,9.8504375E3,1.2542608E1,6.274894E0,4.5652267E2,6.3885746E0,5.7888435E1,1.828891E2,2.939696E2,9.556468E3],"tree_param":{"num_deleted":"0","num_feature":"29","num_nodes":"15","size_leaf_vector":"1"}},{"base_weights":[1.5731206E-5,-1.06875E-2,4.6389624E-2,1.4841445E-3,-8.2982846E-2,3.2568073E-1,2.843157E-2,1.376703E-4,-4.18625E-2,-1.1550541E-2,-4.3401463E-4,2.9108414E-2,1.9917756E-3,2.458182E-3,-9.735377E-3],"categories":[],"categories_nodes":[],"categories_segments":[],"categories_sizes":[],"default_left":[0,0,0,0,0,0,0,0,0,0,0,0,0,0,0],"id":62,"left_children":[1,3,5,7,9,11,13,-1,-1,-1,-1,-1,-1,-1,-1],"loss_changes":[5.2485876E0,7.560181E0,9.936163E0,7.831593E0,1.3614998E1,8.752793E0,8.633735E0,0E0,0E0,0E0,0E0,0E0,0E0,0E0,0E0],"parents":[2147483647,0,0,1,1,2,2,3,3,4,4,5,5,6,6],"right_children":[2,4,6,8,10,12,14,-1,-1,-1,-1,-1,-1,-1,-1],"split_conditions":[7.4801654E-1,7.543797E-1,-1.0931368E0,1.5392923E0,-4.0028557E-1,-2.0858315E-1,1.4570456E0,1.376703E-4,-4.18625E-2,-1.1550541E-2,-4.3401463E-4,2.9108414E-2,1.9917756E-3,2.458182E-3,-9.735377E-3],"split_indices":[22,0,4,16,6,2,13,0,0,0,0,0,0,0,0],"split_type":[0,0,0,0,0,0,0,0,0,0,0,0,0,0,0],"sum_hessian":[1.0572358E4,8.590432E3,1.9819274E3,7.3533936E3,1.2370378E3,1.1870121E2,1.8632262E3,7.343278E3,1.0115911E1,4.127115E2,8.243264E2,6.2017E1,5.668421E1,1.7055422E3,1.5768391E2],"tree_param":{"num_deleted":"0","num_feature":"29","num_nodes":"15","size_leaf_vector":"1"}},{"base_weights":[1.233486E-5,6.661081E-2,-7.145892E-3,7.27689E-1,5.8100805E-2,2.3042604E-1,-9.576181E-3,-2.4211736E-2,5.1289678E-2,-3.3452492E-2,3.3464623E-3,-9.955688E-3,1.6389882E-2,-9.352185E-3,-2.9379028E-4],"categories":[],"categories_nodes":[],"categories_segments":[],"categories_sizes":[],"default_left":[0,0,0,0,0,0,0,0,0,0,0,0,0,0,0],"id":63,"left_children":[1,3,5,7,9,11,13,-1,-1,-1,-1,-1,-1,-1,-1],"loss_changes":[5.0406876E0,5.73079E0,5.514546E0,5.1772113E0,6.555706E0,4.110474E0,6.205755E0,0E0,0E0,0E0,0E0,0E0,0E0,0E0,0E0],"parents":[2147483647,0,0,1,1,2,2,3,3,4,4,5,5,6,6],"right_children":[2,4,6,8,10,12,14,-1,-1,-1,-1,-1,-1,-1,-1],"split_conditions":[-1.3853995E0,-3.2591453E0,-1.8361218E0,-2.6699839E0,-2.5330126E0,-2.3756275E0,-2.1863272E0,-2.4211736E-2,5.1289678E-2,-3.3452492E-2,3.3464623E-3,-9.955688E-3,1.6389882E-2,-9.352185E-3,-2.9379028E-4],"split_indices":[13,8,4,0,5,14,1,0,0,0,0,0,0,0,0],"split_type":[0,0,0,0,0,0,0,0,0,0,0,0,0,0,0],"sum_hessian":[1.0571532E4,1.025181E3,9.546352E3,1.1955287E1,1.0132257E3,9.571743E1,9.450634E3,2.236909E0,9.718378E0,1.1257083E1,1.0019686E3,1.7495197E1,7.822223E1,1.9201828E2,9.258615E3],"tree_param":{"num_deleted":"0","num_feature":"29","num_nodes":"15","size_leaf_vector":"1"}},{"base_weights":[1.1951521E-5,1.2615103E-2,-3.6933426E-2,1.0666098E-2,4.557166E-1,-2.8530455E-1,-2.3108836E-2,6.0247415E-4,-3.537326E-2,-5.2817464E-2,3.0230774E-2,-1.6691968E-2,3.9584197E-2,-9.0063205E-3,-2.895063E-4],"categories":[],"categories_nodes":[],"categories_segments":[],"categories_sizes":[],"default_left":[0,0,0,0,0,0,0,0,0,0,0,0,0,0,0],"id":64,"left_children":[1,3,5,7,9,11,13,-1,-1,-1,-1,-1,-1,-1,-1],"loss_changes":[4.9230156E0,6.803421E0,9.227488E0,7.8071632E0,8.40626E0,7.6716156E0,6.9294662E0,0E0,0E0,0E0,0E0,0E0,0E0,0E0,0E0],"parents":[2147483647,0,0,1,1,2,2,3,3,4,4,5,5,6,6],"right_children":[2,4,6,8,10,12,14,-1,-1,-1,-1,-1,-1,-1,-1],"split_conditions":[3.5584572E-1,1.2071018E0,-7.396638E-1,2.7526815E0,1.2276036E0,2.5592968E0,-3.4652358E-1,6.0247415E-4,-3.537326E-2,-5.2817464E-2,3.0230774E-2,-1.6691968E-2,3.9584197E-2,-9.0063205E-3,-2.895063E-4],"split_indices":[14,19,6,16,2,24,26,0,0,0,0,0,0,0,0],"split_type":[0,0,0,0,0,0,0,0,0,0,0,0,0,0,0],"sum_hessian":[1.0570846E4,7.8825386E3,2.6883066E3,7.849038E3,3.3500343E1,1.4070885E2,2.547598E3,7.8349287E3,1.4109736E1,2.4568324E0,3.1043509E1,1.3530147E2,5.407374E0,2.5214658E2,2.2954512E3],"tree_param":{"num_deleted":"0","num_feature":"29","num_nodes":"15","size_leaf_vector":"1"}},{"base_weights":[7.025064E-6,1.1856292E-2,-3.8523078E-2,7.828223E-3,2.4497035E-1,-6.0620043E-2,1.04046136E-1,5.9392833E-4,-1.159117E-2,1.5335033E-2,-2.1571968E-2,6.359206E-4,-6.1156927E-3,-1.5242559E-2,1.0831625E-2],"categories":[],"categories_nodes":[],"categories_segments":[],"categories_sizes":[],"default_left":[0,0,0,0,0,0,0,0,0,0,0,0,0,0,0],"id":65,"left_children":[1,3,5,7,9,11,13,-1,-1,-1,-1,-1,-1,-1,-1],"loss_changes":[4.826717E0,7.5903773E0,7.839836E0,7.7188244E0,5.8655596E0,9.745193E0,1.5444262E1,0E0,0E0,0E0,0E0,0E0,0E0,0E0,0E0],"parents":[2147483647,0,0,1,1,2,2,3,3,4,4,5,5,6,6],"right_children":[2,4,6,8,10,12,14,-1,-1,-1,-1,-1,-1,-1,-1],"split_conditions":[8.9688635E-1,1.7880461E0,1.0536199E0,1.4452028E0,2.7503235E0,7.543797E-1,7.5154287E-1,5.9392833E-4,-1.159117E-2,1.5335033E-2,-2.1571968E-2,6.359206E-4,-6.1156927E-3,-1.5242559E-2,1.0831625E-2],"split_indices":[3,2,6,16,12,0,19,0,0,0,0,0,0,0,0],"split_type":[0,0,0,0,0,0,0,0,0,0,0,0,0,0,0],"sum_hessian":[1.0570074E4,8.0845137E3,2.4855603E3,7.9482075E3,1.3630663E2,2.1525144E3,3.330459E2,7.817042E3,1.3116516E2,1.2540823E2,1.0898396E1,9.8380774E2,1.1687067E3,7.153467E1,2.6151123E2],"tree_param":{"num_deleted":"0","num_feature":"29","num_nodes":"15","size_leaf_vector":"1"}},{"base_weights":[3.8138385E-6,-1.0439027E-2,4.526243E-2,1.7517442E-2,-3.77072E-2,3.1020522E-1,2.8269492E-2,6.7507676E-3,1.8953349E-4,-3.5959937E-2,-1.5317684E-3,2.7784294E-2,1.8927566E-3,-3.7175328E-3,3.5538475E-3],"categories":[],"categories_nodes":[],"categories_segments":[],"categories_sizes":[],"default_left":[0,0,0,0,0,0,0,0,0,0,0,0,0,0,0],"id":66,"left_children":[1,3,5,7,9,11,13,-1,-1,-1,-1,-1,-1,-1,-1],"loss_changes":[4.9963174E0,6.5485764E0,8.914063E0,6.841067E0,2.0935408E1,7.958555E0,8.191681E0,0E0,0E0,0E0,0E0,0E0,0E0,0E0,0E0],"parents":[2147483647,0,0,1,1,2,2,3,3,4,4,5,5,6,6],"right_children":[2,4,6,8,10,12,14,-1,-1,-1,-1,-1,-1,-1,-1],"split_conditions":[7.4801654E-1,-1.8865803E-1,-1.0931368E0,-7.361483E-1,-1.2229376E0,-2.0858315E-1,-3.7361377E-1,6.7507676E-3,1.8953349E-4,-3.5959937E-2,-1.5317684E-3,2.7784294E-2,1.8927566E-3,-3.7175328E-3,3.5538475E-3],"split_indices":[22,17,4,12,0,2,26,0,0,0,0,0,0,0,0],"split_type":[0,0,0,0,0,0,0,0,0,0,0,0,0,0,0],"sum_hessian":[1.0569341E4,8.588438E3,1.9809019E3,4.2408745E3,4.3475645E3,1.1835368E2,1.8625482E3,4.4269284E2,3.7981814E3,4.3617077E1,4.3039473E3,6.170028E1,5.6653404E1,5.48035E2,1.3145132E3],"tree_param":{"num_deleted":"0","num_feature":"29","num_nodes":"15","size_leaf_vector":"1"}},{"base_weights":[4.293814E-6,1.3310662E-2,-3.4049876E-2,2.2511255E-2,-5.4909147E-2,-4.232331E-2,1.8172877E-1,8.9941546E-4,2.0383101E-2,-5.9077915E-2,-2.3412022E-3,-2.242631E-3,3.2941632E-2,1.4093651E-2,-1.628003E-2],"categories":[],"categories_nodes":[],"categories_segments":[],"categories_sizes":[],"default_left":[0,0,0,0,0,0,0,0,0,0,0,0,0,0,0],"id":67,"left_children":[1,3,5,7,9,11,13,-1,-1,-1,-1,-1,-1,-1,-1],"loss_changes":[4.790242E0,4.772216E0,5.3099976E0,1.1661689E1,8.175734E0,5.1037726E0,5.6735334E0,0E0,0E0,0E0,0E0,0E0,0E0,0E0,0E0],"parents":[2147483647,0,0,1,1,2,2,3,3,4,4,5,5,6,6],"right_children":[2,4,6,8,10,12,14,-1,-1,-1,-1,-1,-1,-1,-1],"split_conditions":[7.700741E-1,1.1219646E0,2.783726E0,2.0312014E0,-1.6830088E0,3.743628E0,2.2520409E0,8.9941546E-4,2.0383101E-2,-5.9077915E-2,-2.3412022E-3,-2.242631E-3,3.2941632E-2,1.4093651E-2,-1.628003E-2],"split_indices":[13,3,7,26,24,2,0,0,0,0,0,0,0,0,0],"split_type":[0,0,0,0,0,0,0,0,0,0,0,0,0,0,0],"sum_hessian":[1.0569281E4,7.6001846E3,2.9690964E3,6.6975737E3,9.026109E2,2.8602324E3,1.08863846E2,6.6208696E3,7.670422E1,5.3970594E0,8.9721387E2,2.8508845E3,9.34808E0,9.128838E1,1.7575466E1],"tree_param":{"num_deleted":"0","num_feature":"29","num_nodes":"15","size_leaf_vector":"1"}},{"base_weights":[2.7813405E-6,-9.951995E-3,4.3149825E-2,3.1493125E-3,-6.506497E-2,6.362108E-2,-1.6491137E-1,-1.9179576E-4,6.667779E-3,-1.0359186E-2,-9.089172E-4,1.1212074E-2,1.7197671E-3,2.7005766E-2,-1.1079349E-2],"categories":[],"categories_nodes":[],"categories_segments":[],"categories_sizes":[],"default_left":[0,0,0,0,0,0,0,0,0,0,0,0,0,0,0],"id":68,"left_children":[1,3,5,7,9,11,13,-1,-1,-1,-1,-1,-1,-1,-1],"loss_changes":[4.54007E0,6.2016096E0,8.4503975E0,6.3125887E0,1.098815E1,8.46427E0,7.2233224E0,0E0,0E0,0E0,0E0,0E0,0E0,0E0,0E0],"parents":[2147483647,0,0,1,1,2,2,3,3,4,4,5,5,6,6],"right_children":[2,4,6,8,10,12,14,-1,-1,-1,-1,-1,-1,-1,-1],"split_conditions":[7.4801654E-1,3.843312E-1,1.44207E0,6.080402E-1,4.267715E-1,1.7822862E-1,-6.025402E-1,-1.9179576E-4,6.667779E-3,-1.0359186E-2,-9.089172E-4,1.1212074E-2,1.7197671E-3,2.7005766E-2,-1.1079349E-2],"split_indices":[22,19,13,17,26,25,27,0,0,0,0,0,0,0,0],"split_type":[0,0,0,0,0,0,0,0,0,0,0,0,0,0,0],"sum_hessian":[1.0568121E4,8.587585E3,1.9805364E3,6.939006E3,1.6485791E3,1.8037579E3,1.7677849E2,6.5866216E3,3.5238458E2,4.0811545E2,1.2404636E3,2.766511E2,1.5271068E3,1.2518785E1,1.642597E2],"tree_param":{"num_deleted":"0","num_feature":"29","num_nodes":"15","size_leaf_vector":"1"}},{"base_weights":[4.6028194E-6,1.24435924E-1,-3.4343111E-3,-2.4151812E-1,1.8111412E-1,-1.6350394E-1,-4.69119E-4,4.2322896E-2,-2.6448473E-2,1.0707547E-2,-1.7727444E-2,2.0946981E-2,-1.2085752E-2,1.117765E-4,-8.079621E-3],"categories":[],"categories_nodes":[],"categories_segments":[],"categories_sizes":[],"default_left":[0,0,0,0,0,0,0,0,0,0,0,0,0,0,0],"id":69,"left_children":[1,3,5,7,9,11,13,-1,-1,-1,-1,-1,-1,-1,-1],"loss_changes":[4.5226836E0,5.939499E0,4.8815794E0,1.2503356E1,4.4416676E0,8.62232E0,4.40131E0,0E0,0E0,0E0,0E0,0E0,0E0,0E0,0E0],"parents":[2147483647,0,0,1,1,2,2,3,3,4,4,5,5,6,6],"right_children":[2,4,6,8,10,12,14,-1,-1,-1,-1,-1,-1,-1,-1],"split_conditions":[-1.7148852E0,-2.0248032E0,-2.1863272E0,-3.3171325E0,-1.2511874E0,-1.3437212E0,1.6800115E0,4.2322896E-2,-2.6448473E-2,1.0707547E-2,-1.7727444E-2,2.0946981E-2,-1.2085752E-2,1.117765E-4,-8.079621E-3],"split_indices":[4,5,1,14,3,13,4,0,0,0,0,0,0,0,0],"split_type":[0,0,0,0,0,0,0,0,0,0,0,0,0,0,0],"sum_hessian":[1.0567274E4,2.8324768E2,1.0284026E4,3.7548317E1,2.4569937E2,1.860558E2,1.0097971E4,7.4408193E0,3.0107496E1,2.319916E2,1.3707782E1,2.1510326E1,1.6454547E2,9.932232E3,1.6573839E2],"tree_param":{"num_deleted":"0","num_feature":"29","num_nodes":"15","size_leaf_vector":"1"}},{"base_weights":[5.947046E-6,2.9733164E-2,-1.38954725E-2,6.471703E-2,-3.573058E-2,-3.764331E-1,-1.1591489E-2,5.746091E-3,4.663569E-4,-2.319673E-3,4.54049E-2,-3.2918334E-2,1.909702E-2,2.3127802E-2,-7.0752384E-4],"categories":[],"categories_nodes":[],"categories_segments":[],"categories_sizes":[],"default_left":[0,0,0,0,0,0,0,0,0,0,0,0,0,0,0],"id":70,"left_children":[1,3,5,7,9,11,13,-1,-1,-1,-1,-1,-1,-1,-1],"loss_changes":[4.3675623E0,7.7145777E0,6.010706E0,6.103011E0,1.1852064E1,9.967953E0,8.690175E0,0E0,0E0,0E0,0E0,0E0,0E0,0E0,0E0],"parents":[2147483647,0,0,1,1,2,2,3,3,4,4,5,5,6,6],"right_children":[2,4,6,8,10,12,14,-1,-1,-1,-1,-1,-1,-1,-1],"split_conditions":[-2.46174E-1,1.5801454E-1,-1.9355708E0,-2.0858315E-1,2.978499E-1,5.0992584E-1,-1.6011155E0,5.746091E-3,4.663569E-4,-2.319673E-3,4.54049E-2,-3.2918334E-2,1.909702E-2,2.3127802E-2,-7.0752384E-4],"split_indices":[8,6,1,2,19,7,4,0,0,0,0,0,0,0,0],"split_type":[0,0,0,0,0,0,0,0,0,0,0,0,0,0,0],"sum_hessian":[1.0566801E4,3.3665435E3,7.200258E3,2.194052E3,1.1724915E3,4.4444324E1,7.1558135E3,1.1503306E3,1.0437216E3,1.1603335E3,1.21579895E1,3.24956E1,1.1948723E1,3.7447853E1,7.118365E3],"tree_param":{"num_deleted":"0","num_feature":"29","num_nodes":"15","size_leaf_vector":"1"}},{"base_weights":[1.1447429E-5,9.177161E-2,-4.367426E-3,2.640868E-1,2.2255657E-2,-1.657289E-1,-4.0408142E-4,-1.567272E-2,1.7524244E-2,-3.8350075E-2,3.2579692E-3,-1.0074088E-2,3.2324262E-2,7.680633E-3,-2.5769914E-4],"categories":[],"categories_nodes":[],"categories_segments":[],"categories_sizes":[],"default_left":[0,0,0,0,0,0,0,0,0,0,0,0,0,0,0],"id":71,"left_children":[1,3,5,7,9,11,13,-1,-1,-1,-1,-1,-1,-1,-1],"loss_changes":[4.246291E0,5.7599816E0,6.4506717E0,7.0094957E0,1.1700925E1,7.1520534E0,7.203674E0,0E0,0E0,0E0,0E0,0E0,0E0,0E0,0E0],"parents":[2147483647,0,0,1,1,2,2,3,3,4,4,5,5,6,6],"right_children":[2,4,6,8,10,12,14,-1,-1,-1,-1,-1,-1,-1,-1],"split_conditions":[-1.6276541E0,-6.381622E-1,-1.9355708E0,-2.6240609E0,-1.5224397E0,4.40436E0,-1.3756487E0,-1.567272E-2,1.7524244E-2,-3.8350075E-2,3.2579692E-3,-1.0074088E-2,3.2324262E-2,7.680633E-3,-2.5769914E-4],"split_indices":[3,25,1,22,2,6,15,0,0,0,0,0,0,0,0],"split_type":[0,0,0,0,0,0,0,0,0,0,0,0,0,0,0],"sum_hessian":[1.0566013E4,4.803443E2,1.0085668E4,1.3727354E2,3.4307074E2,2.4080603E2,9.844862E3,1.7521349E1,1.197522E2,1.681756E1,3.2625317E2,2.3137314E2,9.43288E0,2.9359607E2,9.551266E3],"tree_param":{"num_deleted":"0","num_feature":"29","num_nodes":"15","size_leaf_vector":"1"}},{"base_weights":[1.1401247E-5,-1.0124105E-2,3.9750066E-2,-8.892844E-3,-6.354003E-1,2.0377141E-1,1.4353911E-2,-6.066451E-4,1.0256522E-2,-4.506487E-2,5.1947422E-2,2.1673193E-2,4.898727E-3,-5.2459696E-3,2.8532993E-3],"categories":[],"categories_nodes":[],"categories_segments":[],"categories_sizes":[],"default_left":[0,0,0,0,0,0,0,0,0,0,0,0,0,0,0],"id":72,"left_children":[1,3,5,7,9,11,13,-1,-1,-1,-1,-1,-1,-1,-1],"loss_changes":[4.25628E0,6.476679E0,8.942678E0,5.830508E0,8.2971115E0,6.9526396E0,9.485078E0,0E0,0E0,0E0,0E0,0E0,0E0,0E0,0E0],"parents":[2147483647,0,0,1,1,2,2,3,3,4,4,5,5,6,6],"right_children":[2,4,6,8,10,12,14,-1,-1,-1,-1,-1,-1,-1,-1],"split_conditions":[6.843787E-1,2.0263553E0,-5.305604E-1,2.246343E0,2.2520409E0,-1.1831731E-1,-3.3074555E-1,-6.066451E-4,1.0256522E-2,-4.506487E-2,5.1947422E-2,2.1673193E-2,4.898727E-3,-5.2459696E-3,2.8532993E-3],"split_indices":[22,21,5,7,0,27,26,0,0,0,0,0,0,0,0],"split_type":[0,0,0,0,0,0,0,0,0,0,0,0,0,0,0],"sum_hessian":[1.0565483E4,8.418943E3,2.1465403E3,8.403409E3,1.5533327E1,2.8685568E2,1.8596844E3,8.279019E3,1.2439117E2,1.3803023E1,1.7303036E0,8.948353E1,1.9737216E2,4.8997495E2,1.3697095E3],"tree_param":{"num_deleted":"0","num_feature":"29","num_nodes":"15","size_leaf_vector":"1"}},{"base_weights":[1.4876899E-5,6.660471E-2,-5.9322454E-3,5.1301863E-2,4.889063E-1,1.573386E-2,-2.7873822E-2,4.0082303E-3,-1.3763435E-2,4.380445E-2,-1.5173164E-2,6.774756E-5,6.739713E-3,-7.466115E-3,-7.0650585E-4],"categories":[],"categories_nodes":[],"categories_segments":[],"categories_sizes":[],"default_left":[0,0,0,0,0,0,0,0,0,0,0,0,0,0,0],"id":73,"left_children":[1,3,5,7,9,11,13,-1,-1,-1,-1,-1,-1,-1,-1],"loss_changes":[4.18483E0,5.573856E0,4.612132E0,7.9133205E0,9.5248E0,8.357131E0,8.043482E0,0E0,0E0,0E0,0E0,0E0,0E0,0E0,0E0],"parents":[2147483647,0,0,1,1,2,2,3,3,4,4,5,5,6,6],"right_children":[2,4,6,8,10,12,14,-1,-1,-1,-1,-1,-1,-1,-1],"split_conditions":[-1.444607E0,1.0407068E0,7.8068473E-3,5.419436E-1,1.6933157E0,9.2664644E-2,7.680334E-2,4.0082303E-3,-1.3763435E-2,4.380445E-2,-1.5173164E-2,6.774756E-5,6.739713E-3,-7.466115E-3,-7.0650585E-4],"split_indices":[13,19,24,23,0,17,24,0,0,0,0,0,0,0,0],"split_type":[0,0,0,0,0,0,0,0,0,0,0,0,0,0,0],"sum_hessian":[1.0565278E4,8.6538434E2,9.699895E3,8.3620447E2,2.9179874E1,4.8807266E3,4.8191675E3,7.6899426E2,6.72102E1,1.9530735E1,9.649138E0,4.3557007E3,5.25026E2,4.889161E2,4.3302515E3],"tree_param":{"num_deleted":"0","num_feature":"29","num_nodes":"15","size_leaf_vector":"1"}},{"base_weights":[1.6123944E-5,3.127424E-1,-1.2292977E-3,-2.8074646E-1,4.8015076E-1,-1.5617026E-1,1.8318639E-3,1.43293785E-2,-6.025204E-2,8.587258E-4,3.9086167E-2,4.967837E-3,-1.5395641E-2,1.4134057E-2,-1.3142795E-5],"categories":[],"categories_nodes":[],"categories_segments":[],"categories_sizes":[],"default_left":[0,0,0,0,0,0,0,0,0,0,0,0,0,0,0],"id":74,"left_children":[1,3,5,7,9,11,13,-1,-1,-1,-1,-1,-1,-1,-1],"loss_changes":[4.1154356E0,4.299183E0,4.9921412E0,5.5119724E0,4.602642E0,7.9374113E0,6.0723805E0,0E0,0E0,0E0,0E0,0E0,0E0,0E0,0E0],"parents":[2147483647,0,0,1,1,2,2,3,3,4,4,5,5,6,6],"right_children":[2,4,6,8,10,12,14,-1,-1,-1,-1,-1,-1,-1,-1],"split_conditions":[-4.2019935E0,1.3858874E0,-2.202547E0,-3.9152606E0,-2.9710317E0,-9.721026E-1,-2.184177E0,1.43293785E-2,-6.025204E-2,8.587258E-4,3.9086167E-2,4.967837E-3,-1.5395641E-2,1.4134057E-2,-1.3142795E-5],"split_indices":[14,27,19,8,18,13,0,0,0,0,0,0,0,0,0],"split_type":[0,0,0,0,0,0,0,0,0,0,0,0,0,0,0],"sum_hessian":[1.0564607E4,4.0914173E1,1.0523693E4,8.852754E0,3.206142E1,2.0291888E2,1.0320774E4,5.9131737E0,2.9395807E0,1.306338E1,1.899804E1,7.573318E1,1.2718571E2,7.541613E1,1.0245358E4],"tree_param":{"num_deleted":"0","num_feature":"29","num_nodes":"15","size_leaf_vector":"1"}},{"base_weights":[1.558953E-5,-6.155172E-3,6.247483E-2,8.207684E-3,-5.352287E-2,7.1617526E-1,5.1183756E-2,1.0605904E-2,1.8277124E-4,1.9534808E-3,-5.3461217E-3,1.5519267E-3,5.628994E-2,-3.1575367E-3,6.0797385E-3],"categories":[],"categories_nodes":[],"categories_segments":[],"categories_sizes":[],"default_left":[0,0,0,0,0,0,0,0,0,0,0,0,0,0,0],"id":75,"left_children":[1,3,5,7,9,11,13,-1,-1,-1,-1,-1,-1,-1,-1],"loss_changes":[4.072519E0,6.542785E0,6.975737E0,6.8495293E0,1.1067618E1,4.4706974E0,7.534878E0,0E0,0E0,0E0,0E0,0E0,0E0,0E0,0E0],"parents":[2147483647,0,0,1,1,2,2,3,3,4,4,5,5,6,6],"right_children":[2,4,6,8,10,12,14,-1,-1,-1,-1,-1,-1,-1,-1],"split_conditions":[1.2962028E0,3.7802187E-1,-1.5637172E0,-1.8111596E0,-2.2258762E-1,-1.3971981E0,-3.225415E-1,1.0605904E-2,1.8277124E-4,1.9534808E-3,-5.3461217E-3,1.5519267E-3,5.628994E-2,-3.1575367E-3,6.0797385E-3],"split_indices":[18,25,3,3,7,5,26,0,0,0,0,0,0,0,0],"split_type":[0,0,0,0,0,0,0,0,0,0,0,0,0,0,0],"sum_hessian":[1.0564415E4,9.615353E3,9.4906287E2,7.3787817E3,2.236571E3,1.5054409E1,9.340085E2,1.601369E2,7.2186445E3,8.1816956E2,1.4184015E3,6.0353875E0,9.019021E0,3.560127E2,5.779958E2],"tree_param":{"num_deleted":"0","num_feature":"29","num_nodes":"15","size_leaf_vector":"1"}},{"base_weights":[2.1756628E-5,2.4822152E-3,-1.5358944E-1,-2.054273E-3,1.2621707E-1,-9.054148E-1,-1.055623E-1,1.22949E-4,-7.4798237E-3,2.0611838E-2,2.5416603E-3,9.0782327E-4,-6.2936276E-2,2.485262E-2,-1.0419625E-2],"categories":[],"categories_nodes":[],"categories_segments":[],"categories_sizes":[],"default_left":[0,0,0,0,0,0,0,0,0,0,0,0,0,0,0],"id":76,"left_children":[1,3,5,7,9,11,13,-1,-1,-1,-1,-1,-1,-1,-1],"loss_changes":[3.9932544E0,5.837375E0,5.918706E0,6.6806893E0,7.908985E0,3.2432928E0,9.87542E0,0E0,0E0,0E0,0E0,0E0,0E0,0E0,0E0],"parents":[2147483647,0,0,1,1,2,2,3,3,4,4,5,5,6,6],"right_children":[2,4,6,8,10,12,14,-1,-1,-1,-1,-1,-1,-1,-1],"split_conditions":[1.6800115E0,1.7880461E0,-7.950776E-1,1.4452028E0,1.9755803E0,4.2471775E-1,-3.0320466E-1,1.22949E-4,-7.4798237E-3,2.0611838E-2,2.5416603E-3,9.0782327E-4,-6.2936276E-2,2.485262E-2,-1.0419625E-2],"split_indices":[4,2,22,16,2,15,18,0,0,0,0,0,0,0,0],"split_type":[0,0,0,0,0,0,0,0,0,0,0,0,0,0,0],"sum_hessian":[1.0563441E4,1.0397878E4,1.6556357E2,1.0031092E4,3.667863E2,8.869333E0,1.5669423E2,9.734307E3,2.9678497E2,7.5574554E1,2.9121173E2,2.7166052E0,6.1527286E0,2.2281935E1,1.3441231E2],"tree_param":{"num_deleted":"0","num_feature":"29","num_nodes":"15","size_leaf_vector":"1"}},{"base_weights":[1.7302296E-5,-9.184896E-3,3.9909E-2,1.581226E-2,-3.356427E-2,2.8531417E-1,2.425344E-2,6.4421915E-3,1.302143E-4,-3.3202715E-2,-1.3282398E-3,8.475178E-3,4.4209093E-2,-4.2661596E-3,2.8679047E-3],"categories":[],"categories_nodes":[],"categories_segments":[],"categories_sizes":[],"default_left":[0,0,0,0,0,0,0,0,0,0,0,0,0,0,0],"id":77,"left_children":[1,3,5,7,9,11,13,-1,-1,-1,-1,-1,-1,-1,-1],"loss_changes":[3.878404E0,5.232283E0,7.601515E0,6.328759E0,1.9163729E1,8.08031E0,6.7617865E0,0E0,0E0,0E0,0E0,0E0,0E0,0E0,0E0],"parents":[2147483647,0,0,1,1,2,2,3,3,4,4,5,5,6,6],"right_children":[2,4,6,8,10,12,14,-1,-1,-1,-1,-1,-1,-1,-1],"split_conditions":[7.4801654E-1,-1.8865803E-1,-1.0931368E0,-7.361483E-1,-1.1996517E0,-6.472155E-2,-5.1303965E-1,6.4421915E-3,1.302143E-4,-3.3202715E-2,-1.3282398E-3,8.475178E-3,4.4209093E-2,-4.2661596E-3,2.8679047E-3],"split_indices":[22,17,4,12,0,8,26,0,0,0,0,0,0,0,0],"split_type":[0,0,0,0,0,0,0,0,0,0,0,0,0,0,0],"sum_hessian":[1.056323E4,8.583876E3,1.9793546E3,4.238412E3,4.3454634E3,1.17667076E2,1.8616875E3,4.4253323E2,3.795879E3,4.6681396E1,4.298782E3,9.967475E1,1.7992323E1,4.3157938E2,1.4301082E3],"tree_param":{"num_deleted":"0","num_feature":"29","num_nodes":"15","size_leaf_vector":"1"}},{"base_weights":[1.9108986E-5,1.1950394E-2,-3.0516073E-2,3.6410868E-1,1.0329653E-2,3.9994267E-1,-3.4218114E-2,-5.7655495E-2,2.63601E-2,-1.2472483E-2,6.6946924E-4,5.416528E-2,4.8574354E-3,-2.9477108E-2,-1.4755424E-3],"categories":[],"categories_nodes":[],"categories_segments":[],"categories_sizes":[],"default_left":[0,0,0,0,0,0,0,0,0,0,0,0,0,0,0],"id":78,"left_children":[1,3,5,7,9,11,13,-1,-1,-1,-1,-1,-1,-1,-1],"loss_changes":[3.8491669E0,4.332196E0,4.7440295E0,9.2126045E0,6.0148845E0,5.14839E0,7.6783714E0,0E0,0E0,0E0,0E0,0E0,0E0,0E0,0E0],"parents":[2147483647,0,0,1,1,2,2,3,3,4,4,5,5,6,6],"right_children":[2,4,6,8,10,12,14,-1,-1,-1,-1,-1,-1,-1,-1],"split_conditions":[7.700741E-1,-3.9152606E0,-2.6240609E0,4.0580457E-1,-2.6240609E0,-6.009464E-1,-2.202547E0,-5.7655495E-2,2.63601E-2,-1.2472483E-2,6.6946924E-4,5.416528E-2,4.8574354E-3,-2.9477108E-2,-1.4755424E-3],"split_indices":[13,8,22,12,22,6,19,0,0,0,0,0,0,0,0],"split_type":[0,0,0,0,0,0,0,0,0,0,0,0,0,0,0],"sum_hessian":[1.0563229E4,7.5958447E3,2.967384E3,3.377367E1,7.5620713E3,2.438989E1,2.9429941E3,2.6889315E0,3.108474E1,8.709329E1,7.474978E3,6.697312E0,1.769258E1,2.3692638E1,2.9193015E3],"tree_param":{"num_deleted":"0","num_feature":"29","num_nodes":"15","size_leaf_vector":"1"}},{"base_weights":[1.6912581E-5,2.7480034E-2,